2144 133
has 0.037086863 0.07062948 0.24503022 -0.1071005 -0.31658283 -0.070540376 -0.28333256 0.17407754 0.16625829 -0.21989207 0.14791389 -0.038717628 -0.067607634 0.052972462 -0.025163002 0.062363744 -0.10478314 0.18515757 0.23494144 -0.05956955 0.2202357 0.041727275 0.28342345 0.032379378 0.14827143 0.012576819 -0.20227474 0.15104496 0.047708128 -0.059435464 -0.24042618 -0.1866648 -0.1549078 0.07023005 -0.1441056 -0.1381146 0.04581404 0.33843696 0.07242904 0.044403702 0.03948487 0.023970632 -0.308433 -0.06986916 0.15229405 0.17620589 -0.049432866 -0.088383846 -0.08050744 -0.022264365 -0.08748783 -0.20993109 0.3295442 -0.081933476 0.013743452 -0.14632545 -0.10644501 0.22943208 0.06762905 -0.12590885 0.04147925 0.30186805 0.21784665 -0.037359126 0.3133349 0.108858176 0.16832796 0.33665028 0.14704083 0.1542725 0.14096928 0.016520236 0.01759458 0.0008156153 -0.015170843 0.13477814 0.15841952 0.11071917 -0.10152407 0.054877043 0.034833502 -0.168813 -0.00035663202 0.33836696 -0.14352705 -0.34760678 0.27930754 0.25147137 -0.11105018 0.08522536 0.16823138 -0.06524472 -0.31738648 0.03503099 -0.032645352 0.13500993 0.09078479 -0.09532869 0.14898542 -0.08993975 -0.17022331 -0.09153388 -0.057256818 -0.067339286 0.40524653 -0.08859153 0.035819974 -0.24102779 0.12334197 -0.15206218 -0.08264966 0.06464597 -0.034067474 -0.014698067 -0.06442872 -0.026278552 -0.13557303 -0.025308466 -0.28470626 0.35047084 -0.06363101 -0.09133159 0.045761563 0.28691506 0.3226191 -0.0035197537 -0.15930238 0.3911216 0.09079156 -0.08309295 -0.119462825 0.07417437 -0.19547708
http://www.semanticweb.org/ElementKG#hasStateSolid 0.09332586 -0.3314208 0.015756069 -0.049913067 -0.124081075 -0.035519704 0.0426179 0.15375356 -0.0782128 0.0075037945 -0.12313128 -0.037545305 0.08316759 0.22367857 0.103183806 0.1514943 -0.06504252 -0.09225054 0.2663113 -0.025836106 0.0043914425 0.1789048 0.08409142 -0.08977962 -0.10230488 -0.17793435 -0.10572234 -0.062832385 -0.23106456 0.047479093 0.103628896 0.042384632 -0.09395648 0.13881014 0.031930305 0.1808128 -0.10377341 0.18132015 -0.22035185 0.12535867 -0.39965022 0.008438291 0.02276845 0.13353543 -0.10370918 0.04461646 0.28546652 -0.05019007 -0.06932247 -0.2088518 -0.009231448 0.14878316 -0.03755491 -0.08823873 0.08540114 -0.057697054 0.043754127 0.04281473 0.07536137 0.042571075 -0.18377173 -0.109874964 -0.06751033 -0.012804681 -0.029818228 -0.078309044 -0.14655305 0.08183599 0.0033119333 0.29020837 0.14372854 -0.2749522 -0.11055643 -0.21055883 0.09338744 0.25257576 0.46679604 -0.075361505 -0.20505051 -0.10077384 0.26082304 -0.17152433 0.050283037 0.21683688 -0.04436598 -0.044218827 -0.06739406 -0.13452125 -0.048538327 -0.038600717 -0.066376746 -0.10017919 -0.006291588 -0.0759709 -0.28911605 0.04600894 -0.07913073 0.04593348 0.039751433 -0.21050851 0.18592867 -0.13405615 -0.07961598 0.15833974 -0.2584296 0.27300125 0.1348979 -0.10734451 -0.32784507 0.12896818 -0.12188943 -0.1762776 0.111999325 0.00644532 -0.078662194 0.19035238 -0.2802767 -0.014201234 0.10036264 0.13013048 -0.08872794 0.035904616 -0.11842148 0.26568818 0.265905 -0.013557095 -0.0065263007 0.06775979 -0.13273293 0.09400966 -0.06230729 0.07187249 0.3815209
http://www.semanticweb.org/ElementKG#hasIonization2 0.22082122 -0.25284025 0.12578145 -0.025794799 -0.22023101 -0.22911489 -0.06029371 -0.11598264 -0.027920213 -0.06166185 -0.14771298 -0.19525412 0.2333514 0.20207705 0.20735063 0.2621389 0.099903256 -0.19274339 -0.03864857 0.0090527 -0.024786668 0.24833918 0.050237812 -0.025620857 0.06751074 -0.33406448 -0.07327905 0.25733545 -0.07055048 0.027944513 0.21627167 -0.0039763376 -0.051698476 0.2023158 0.087553725 0.21180646 -0.1556803 0.24583498 -0.09669926 0.20210388 -0.4632645 0.006186384 0.019247983 0.065122835 -0.18476541 -0.06713213 -0.07229369 -0.16757199 -0.09458437 -0.081936926 -0.052417967 0.12454248 -0.07239772 -0.07272774 -0.14296249 0.0024140899 0.07503074 0.1407115 -0.19034548 0.053809397 -0.20769408 -0.11728359 0.050248787 0.108298376 -0.30683473 -0.08799835 -0.2230817 -0.004584569 -0.028843544 0.14085394 0.10268414 -0.09266838 -0.037543233 -0.3122289 0.07741249 0.062755905 0.4419248 -0.14582624 -0.07903051 0.029788869 0.25792432 -0.10302039 -0.107064225 0.12319449 0.10990431 -0.042091243 -0.02291525 -0.045476772 -0.24793449 0.07050932 -0.0546516 -0.0017561114 0.06489899 -0.09248481 -0.33079848 0.19246076 0.07241515 0.15280943 0.04963144 -0.27073902 0.2229568 -0.18625118 0.26860029 -0.0026932731 0.0132205235 0.2299447 0.059557267 -0.24386244 -0.21455914 0.23515646 -0.18498547 -0.054191556 0.029254772 0.034408048 -0.22115141 0.10448973 0.08456049 0.11169006 0.09873053 0.29551274 0.060950126 0.14961538 0.093994826 0.37067258 0.441529 0.08335572 0.0030506346 -0.050220594 -0.091844 0.10198514 0.18017593 -0.085311584 0.13708988
http://www.semanticweb.org/ElementKG#hasConductivity1 -0.2885437 -0.24305128 -0.053807482 0.09322496 0.11899883 0.0641213 -0.41801044 -0.40082037 0.37300488 -0.026404807 -0.1082314 -0.2547574 -0.12731947 -0.16003506 0.34629253 -0.024918204 0.052185014 0.12760958 0.16775207 -0.04980134 -0.13285254 0.2948077 0.07554398 -0.04940024 -0.2557545 0.00088191446 0.11861827 -0.042840265 -0.26163056 0.12352296 -0.15837543 -0.058406744 -0.412277 -0.013744063 0.11006933 0.37778714 0.04565265 -0.078955464 -0.23171452 0.060110487 -0.50008124 0.030775059 0.037119187 -0.048658837 0.18679677 -0.11564016 0.00172148 -0.079853185 -0.2583058 -0.18514673 0.0660557 -0.030581195 -0.09066453 0.059718333 -0.052137468 0.06010767 0.027249705 0.2098958 0.008987536 0.17308171 -0.16894563 0.31282678 -0.07579572 -0.13984641 -0.1388602 0.10752323 -0.22932924 0.13710567 0.0054984344 -0.03944475 -0.06723641 0.12823683 0.09870571 -0.093320236 0.38495323 0.22067718 0.19977911 0.17028914 0.263937 -0.25528532 0.329955 0.042549215 0.006355461 -0.076702565 0.09039075 0.045613937 -0.21131748 -0.28052866 -0.17815427 0.13288239 0.08369021 -0.08120695 -0.048280608 0.14356638 0.15585 0.05732852 -0.0966148 -0.44712517 0.11094132 -0.18661913 0.18293802 -0.38155338 0.07945507 0.20569298 0.016938576 0.10409622 0.06802853 -0.3653592 -0.24963133 0.2352133 0.22779477 0.0845203 0.45541427 -0.15759577 -0.30070296 -0.34585264 0.13282354 0.115123615 0.09931028 0.06476849 -0.15934639 -0.07138919 0.10429164 0.099818625 0.40735313 0.12115763 0.12717728 0.321126 -0.35512805 -0.019405507 0.0360899 0.3090633 0.16912033
solid 0.19273525 -0.36329162 0.17926958 -0.09626949 -0.32472077 -0.06778238 0.03509927 0.25337416 0.059193593 -0.16058512 0.05690049 -0.07307759 -0.16503572 0.16915487 -0.1547704 0.07248458 0.019648293 -0.0743805 0.69353104 -0.30195966 0.34148273 0.14468133 -0.07555493 -0.13334051 0.037331816 0.19926257 -0.034869406 -0.07427433 -0.17640734 0.08108963 -0.3352509 -0.24847148 0.13086858 0.080329955 -0.09365882 -0.31799638 0.08690455 0.40278372 -0.05275764 0.17985217 0.030532151 -0.038491517 -0.08922154 -0.05455769 0.002777671 0.5745007 -0.009443626 -0.12598097 0.048106477 -0.0860687 -0.12112801 -0.25881225 0.3433177 -0.08749457 0.060986094 -0.19096963 0.27727488 -0.103570186 0.29225123 -0.13094254 0.04303732 0.007926674 -0.117616214 -0.20405279 -0.022261351 0.011369541 0.03954508 0.19927767 0.26817885 0.30996463 0.28415066 -0.094063886 -0.0319409 -0.038085807 -0.58336765 0.30588657 0.33326724 -0.13986452 -0.091440216 -0.017053079 0.26783928 -0.29023206 -0.049841642 0.21192911 -0.23010764 0.00019809557 0.10398479 -0.091756 0.12701994 0.021229137 0.20916344 -0.102343544 -0.17374276 -0.03054165 -0.3423284 0.05105499 0.17979532 -0.010413786 0.050203416 -0.22784178 0.089818105 0.13630895 -0.24913904 -0.37789413 -0.028174087 0.10486587 0.07668654 -0.26366425 -0.39537978 -0.14209011 0.015166298 0.04138331 0.004439151 -0.1322685 0.15523435 0.029094469 -0.42996818 0.3251737 0.022031564 0.00339288 0.1950483 -0.017617395 -0.058142528 0.19549865 0.2091405 0.13620041 0.02692936 0.26630324 -0.073145874 -0.12570359 0.13314037 0.07825384 0.4771591
state 0.099031486 0.07273512 0.31334263 -0.16783118 -0.17831972 -0.07319669 -0.27668664 0.18169843 -0.028640252 -0.0014850243 -0.03323082 -0.027071025 -0.26972917 0.21972464 -0.1066312 0.0104462635 0.0342009 0.052941494 0.26421684 -0.07664885 0.44365677 0.05708465 0.04507206 0.29427767 0.19641389 -0.14911175 -0.23126328 0.08542541 -0.32240468 0.2722083 -0.21788597 -0.16586217 -0.34163168 0.082017615 -0.29306152 -0.115946494 -0.047814492 0.5471317 -0.107210174 -0.025201604 -0.28107575 0.084187366 -0.120980375 0.28119302 0.02186026 0.2859814 0.22236574 0.07150437 0.010093433 -0.006941131 -0.3861045 0.07296102 0.485571 -0.026453635 0.25209376 -0.34994826 -0.033753715 0.26382595 0.35887203 0.10025421 -0.06860963 0.26274705 -0.062478546 -0.006289597 0.17887084 -0.19222791 0.13550243 0.31012163 0.20419204 0.034343485 0.29675192 -0.10880029 0.21251936 -0.016442537 -0.018370936 0.07561693 0.20331582 -0.03345044 -0.46284986 -0.12555575 0.09440671 -0.18321799 -0.14177527 0.34085613 0.030654408 -0.1328309 -0.059937745 -0.32478958 0.12677792 0.03233895 0.24667095 0.055727392 -0.0053363177 -0.017191801 0.12987563 0.010015212 0.08306347 -0.11581871 0.28228292 -0.1453922 0.21354139 0.013956457 -0.3855356 0.01770573 -0.22046739 0.14023703 0.06409087 0.070262015 -0.025778979 0.025340617 -0.13212858 -0.10148125 -0.093660556 0.174019 0.2557517 0.07233321 -0.2633483 -0.11682224 0.04592929 0.3947324 0.19867715 -0.005475139 -0.10802384 0.24142453 0.27582413 -0.21549776 -0.22263251 0.004202559 0.03379414 -0.43235356 -0.006945865 0.15673666 0.28084004
ionization2 0.26672876 -0.08218575 0.3440947 -0.13410014 -0.32353044 -0.35660216 -0.2825714 -0.12157034 0.022983741 -0.07490897 0.030308837 -0.25328377 0.015625564 0.13443756 0.034286037 0.21921402 0.06309874 -0.04996341 0.1094827 -0.104356475 0.33974954 0.12923102 -0.015997505 -0.013984602 0.32862923 -0.1965665 -0.06649898 0.37117872 -0.052337807 0.10786051 -0.1796256 -0.16276732 -0.024236381 0.20653014 -0.17121182 -0.18753181 -0.20824783 0.57851774 0.007476515 0.23057199 -0.29003885 -0.007874704 -0.09350553 -0.06188301 -0.0100418385 0.2396398 -0.2013294 -0.102367036 -0.06488779 -0.036969528 -0.32353076 -0.1285481 0.30550203 -0.04270124 0.0015794048 -0.17228691 0.13225041 0.18569967 -0.094050586 0.10067842 -0.03284372 0.034104507 -0.041038133 -0.009295986 -0.2866245 -0.06777493 -0.021292724 0.24886152 0.18832551 0.031857386 0.2655496 0.02465778 0.030148089 -0.15406758 -0.23859522 0.05613016 0.32879338 -0.10968933 -0.18861416 -0.03027515 0.22522058 -0.020287655 -0.1872216 0.21895355 0.110498644 -0.14817521 0.02989556 0.05296836 -0.12245182 0.04941795 0.12408044 0.15321188 -0.028281355 -0.007306479 -0.15074973 0.2263531 0.24104324 0.18256406 0.12903465 -0.2891276 0.3168199 0.04182125 -0.014012955 -0.45177183 0.078821704 0.15314564 0.007823779 -0.3016265 -0.02823236 0.015846992 -0.11279188 0.04867467 -0.075960636 0.09235528 0.031652745 0.030243767 0.06949618 0.35640746 -0.004395318 0.3219632 0.30504844 0.11775988 0.050303925 0.3121106 0.28761122 0.0731363 -0.14895736 -0.12412647 -0.0064042355 -0.16629125 0.28317726 -0.09973382 0.17914015
http://www.semanticweb.org/ElementKG#hasElectronAffinity2 0.10358171 -0.3334333 0.031017497 0.08031883 0.19693121 0.087613836 -0.21609312 0.040611267 0.24410905 -0.039811295 -0.038867556 0.1748685 -0.18193541 0.28134766 -0.10082664 0.24805264 -0.11637826 -0.22319087 0.15122823 -0.2316311 0.033501804 0.023911435 0.24432418 0.07830487 -0.20142943 -0.33672705 0.15545447 0.28373182 -0.1974598 0.109484226 0.38241407 0.004318518 -0.044292457 0.13083924 0.4327967 -0.024268597 0.039828017 0.1067551 0.21735148 -0.11761566 -0.29092988 -0.2453473 -0.041986536 0.18785916 0.2237298 -0.0016423302 0.16275394 -0.14812179 -0.21193181 -0.13413171 0.30225238 -0.020371094 0.38713983 -0.08103368 -0.088349 0.17025964 0.096090846 -0.0881433 0.12627077 0.19395189 0.0828641 0.04409688 -0.08267087 0.27145544 -0.38793325 -0.26294947 -0.21193993 0.28899276 -0.09662879 0.039355677 -0.045112565 -0.1738627 -0.43876058 -0.15292625 0.3472307 0.074119665 0.50587994 -0.2158752 -0.011461148 -0.23982729 0.038358074 -0.040056705 0.41387498 0.053283915 -0.32035172 0.1165621 -0.035053775 -0.22046821 -0.15570958 -0.05655292 -0.32068622 0.09526613 0.07398462 0.081681 -0.08597336 -0.44452253 -0.034126002 -0.091053136 0.09312355 -0.20490907 0.21297842 0.05428015 -0.195739 0.2525497 0.17921783 0.027585123 -0.12072221 0.085967034 -0.27660748 -0.0847125 0.15843059 -0.3432709 -0.15466732 -0.28997892 -0.5472004 0.07489843 -0.23081239 -0.49572918 0.10856569 -0.06315281 -0.12286303 0.15731788 0.3747525 0.15121119 0.27459902 0.07216616 -0.04099668 -0.102521166 0.04491459 0.05841835 0.1558897 0.065387584 -0.06417381
conductivity1 -0.22640555 -0.07457932 0.16195865 -0.03327425 0.035380427 -0.03459733 -0.624311 -0.3894636 0.4478039 -0.046779975 0.053337928 -0.32193 -0.33244058 -0.19837879 0.17139381 -0.042614523 0.00078076264 0.30191565 0.30635512 -0.13451758 0.22682364 0.17719494 0.0076918155 -0.070540965 -0.0051206956 0.12337887 0.13539317 0.05691455 -0.21352096 0.19422758 -0.5505257 -0.22308132 -0.39029554 -0.037923384 -0.13411973 -0.018668791 -0.0023712867 0.26669484 -0.17610444 0.107150726 -0.32306042 0.036548465 -0.10043102 -0.16076641 0.39385602 0.20730293 -0.114726536 0.004043789 -0.22192615 -0.15145864 -0.2178595 -0.3048586 0.2804711 0.0821503 0.069930404 -0.059894893 0.05451114 0.28096002 0.102824464 0.20304568 -0.04777543 0.4576433 -0.15957488 -0.25458592 -0.13178173 0.14881068 -0.07294931 0.363734 0.20436047 -0.15984204 0.08328841 0.2651835 0.14324906 0.08246773 0.07869318 0.18636486 0.080073625 0.19663076 0.14893448 -0.3155075 0.31440285 0.099866144 -0.05952127 0.036314648 0.07075759 -0.026740579 -0.1601211 -0.15712637 -0.057857174 0.11669942 0.2717347 0.0906029 -0.16595669 0.24199674 0.34041032 0.089607075 0.094132006 -0.40016925 0.18674898 -0.20888306 0.27854303 -0.15089595 -0.20546165 -0.24009286 0.06593273 0.026533019 -0.015761144 -0.43310425 -0.07332593 0.030538421 0.30498472 0.21662113 0.35594958 -0.10074651 -0.031157078 -0.43703514 0.13438968 0.3570317 -0.031471476 0.07686561 0.07229793 -0.09910564 0.07690077 0.046133544 0.27121064 0.1112938 -0.00364032 0.22633186 -0.30380052 -0.2604399 0.15573275 0.31861427 0.19733144
http://www.semanticweb.org/ElementKG#hasDensity2 0.22570303 -0.2941372 0.21144776 0.10671145 0.12086405 0.14237688 -0.020380337 0.17353117 0.020357732 -0.5010532 0.355454 0.026254846 -0.0611363 -0.019496027 -0.047587417 0.5283662 0.05854764 0.002038931 0.28155324 0.26873478 -0.028211562 0.362559 0.21485613 -0.19683425 -0.046081383 -0.35412237 0.06393888 -0.09452673 0.17211798 -0.19145422 -0.0954818 0.2112551 -0.24127707 -0.24336138 0.389666 0.22198367 -0.3481732 0.2010861 0.06732087 -0.10951124 -0.052260514 -0.07466346 0.1044994 -0.07864228 -0.076192155 0.13337816 0.29185864 0.10099375 -0.07457104 0.047723133 -0.01214389 0.19585532 -0.12801461 -0.1521472 0.09268019 -0.119925916 0.28691918 0.13586125 0.26280543 -0.09232464 -0.26570323 0.032579865 -0.49405286 0.19855087 -0.3735515 -0.041742384 0.17314297 0.049399212 0.24022868 0.2042464 0.09066624 -0.2262941 -0.23265016 -0.16123058 0.39332733 -0.021848246 0.20946106 0.023285763 -0.280671 0.11817092 0.07876398 -0.029176965 -0.2970981 -0.13182826 -0.12007014 -0.10217998 0.039723255 -0.23008038 -0.2563442 -0.24867451 -0.1874401 0.105994165 0.09532108 -0.017685616 -0.070898026 0.060902998 -0.43071628 -0.13753866 0.14879614 -0.39933974 0.108519375 -0.046679452 0.025839139 0.2070247 0.10713294 0.47178206 0.002185635 -0.24240752 -0.49880037 0.1001788 0.16825597 -0.31353018 0.29691198 -0.05392202 -0.28744268 0.13660896 -0.1762987 -0.059008908 0.2845473 -0.14131968 -0.26037458 -0.2784277 0.1872323 -0.07200122 0.29049635 -0.052052457 -0.41140723 0.1342738 -0.024675542 0.021579577 0.3267515 0.22634529 -0.050142866
electron 0.12252039 -0.0051534534 0.2160389 -0.0865271 0.023765167 0.16751581 -0.5203075 -0.13610478 0.38926443 -0.25702053 -0.015136973 0.054835122 -0.33970428 0.32169732 0.025776252 0.26133803 -0.17254062 -0.16423638 0.31866515 -0.23933423 0.4477436 -0.26653722 0.26332614 -0.038977496 0.07822561 -0.30806097 0.11442733 0.10771415 -0.15353005 0.12908521 -0.08480054 -0.03784389 0.008230053 0.101809934 -0.09878261 -0.058319323 0.089630984 0.54796696 0.38426754 -0.023393806 -0.11831183 -0.16702046 -0.06285414 0.16435851 0.31758752 0.6263106 0.11594044 0.09562894 -0.37635547 -0.23528008 -0.023779212 -0.3522807 0.44312528 -0.02450464 -0.09237965 -0.07200453 0.12451289 0.06633164 0.51466763 0.06405543 0.11098684 -0.0843658 -0.09045122 0.19634962 -0.29537624 -0.052022703 0.18500997 0.6738321 -0.045005947 -0.1517675 -0.0024125464 -0.06631011 -0.36276475 -0.059578694 0.02245368 0.017096896 0.61110026 -0.23950234 -0.05684485 -0.106026694 -0.23550078 0.034948424 0.34893316 0.105415575 -0.4323543 -0.06815821 0.2798306 -0.090032 -0.2871448 0.17705189 -0.060264055 0.024790373 -0.17472292 0.16981438 0.33352023 -0.4517534 0.46666157 -0.12504122 0.5366623 -0.24816802 0.1422733 0.34043047 -0.38319653 -0.028297856 0.2557763 -0.13433911 -0.101367146 -0.05040154 -0.18500449 -0.47953746 0.08000654 0.04669689 -0.22089694 -0.09241528 -0.12633462 0.012246 -0.043312937 0.06284337 0.040222906 -0.05158304 -0.17409834 0.32604373 0.3559181 0.12124516 -0.2024642 0.3625467 -0.46595287 -0.3275493 0.12894337 -0.33307528 0.24998735 -0.086086504 0.1492179
affinity2 -0.02905687 -0.09334646 0.056818582 -0.028981952 -0.056038264 0.13796963 -0.47899017 0.2824348 0.12896104 -0.14399466 0.19823551 0.2767479 -0.5108009 0.15540487 -0.18528014 0.15750505 0.008379449 0.25147724 0.18716876 -0.2928441 0.2986178 -0.12066513 0.2676874 0.076407515 0.058479786 -0.18804559 0.22326766 0.58089006 0.006546016 0.10945174 0.05201555 -0.13135037 -0.060824074 0.0489575 0.21260375 -0.6189988 0.023959965 0.34449607 0.29914582 -0.0942469 -0.17321879 -0.18239179 -0.31906447 0.06090472 0.31149298 0.47033024 0.11284791 0.012231682 -0.10588057 -0.03236796 0.15876505 -0.37631366 0.82268226 -0.16614981 0.102557115 0.034584746 0.27096212 0.121425286 0.1013584 0.29443708 0.08332384 0.13923603 -0.13685752 0.1263459 -0.25732973 -0.31638983 -0.26700526 0.50339633 0.14079672 -0.07942112 0.122755006 -0.05971773 -0.6484161 0.028535027 -0.14917034 0.19448489 0.44060594 -0.12851395 -0.27294695 -0.3773249 -0.0061890827 -0.06845661 0.41007605 0.28384748 -0.18239309 0.05536311 0.0056837876 0.14187683 -0.0840615 0.07226301 -0.10814892 0.6027145 0.04831386 0.2205956 -0.1155624 -0.25743398 0.012097479 -0.18883976 0.23982862 -0.08701289 0.2988233 0.36097705 -0.5623491 -0.2907072 0.21185368 -0.092236124 -0.2621568 -0.06028555 0.09350182 -0.2624739 0.13344428 -0.15713178 -0.15702431 -0.28451005 -0.34717613 -0.0978389 -0.16441287 -0.29219425 0.12959053 -0.074520506 0.29031783 -0.026320543 0.12863407 0.0042432984 0.35507524 -0.24613981 0.026893511 -0.0072276443 0.14641881 -0.004038265 0.38427952 0.17354676 -0.23217918
http://www.semanticweb.org/ElementKG#hasModulus1 -0.013091708 0.06872403 -0.123075016 0.23021524 -0.0043870597 -0.107497334 -0.07759494 0.26168963 0.56632763 -0.466986 -0.22642955 0.2085709 -0.07379194 0.044916548 -0.009236984 0.31423154 -0.01873533 -0.173878 0.045542132 0.20513146 0.14629415 0.039648503 0.55599266 0.074199386 0.14064063 0.34587023 -0.034723267 -0.09433273 0.033173747 0.264962 0.2120029 -0.25255957 -0.13792951 -0.364241 0.2764136 0.16851406 -0.18333663 0.27949837 -0.07938774 -0.20356652 -0.13313259 -0.09162559 -0.09695559 -0.2096101 -0.19736068 0.32300332 0.1850228 0.1744409 -0.43977252 0.08825075 0.26906148 -0.033887263 -0.19443898 -0.3256208 0.33065233 -0.015454944 0.35217592 -0.03210522 -0.07258244 0.12404214 0.1177722 0.12831911 -0.18872361 0.12818241 -0.23617415 0.06592889 -0.006214041 -0.43914264 -0.032802556 0.23243088 -0.18718046 -0.16833904 -0.4905728 -0.04608185 0.66354966 0.009806004 0.24999183 0.16387086 -0.21242553 0.038338374 0.42496887 0.1811541 -0.011124086 0.17660552 -0.10639196 0.1392231 0.024767501 -0.25116763 -0.15961817 0.020566959 -0.50695324 -0.08109275 0.19667885 0.023766434 0.04565339 0.16664907 0.09742549 -0.31268972 -0.15873058 -0.41027588 -0.03184525 -0.31532815 -0.2076703 0.17842266 0.2626502 0.04085548 0.30336297 -0.045768835 -0.10318358 0.37504545 0.08034835 -0.36107394 0.025803061 0.5291145 0.10316917 0.26403624 -0.052363187 0.24701685 -0.036786854 0.07555266 -0.48582906 0.23548336 0.3811332 -0.18332593 0.2852835 -0.13658893 0.48335698 0.29328302 -0.209934 -0.05974623 0.21094099 0.009793552 0.064680874
density2 0.30090806 -0.09254962 0.4356862 -0.00600854 0.020697705 0.03953888 -0.21423592 0.15917201 0.05441265 -0.5072429 0.50707185 -0.03727675 -0.27643874 -0.069563895 -0.21078467 0.47934547 0.021540305 0.162089 0.45745218 0.16139655 0.30973634 0.25195193 0.15073498 -0.19062984 0.1841688 -0.21819483 0.08869682 0.0029768469 0.24460459 -0.11460144 -0.49384195 0.058217227 -0.19819957 -0.24830121 0.12558097 -0.17387198 -0.38908225 0.5509513 0.1533929 -0.078524 0.12008249 -0.10828702 0.003922017 -0.1960153 0.095261216 0.41809955 0.16751431 0.16099948 -0.06670721 0.08105105 -0.30111665 -0.0557228 0.237866 -0.12712935 0.25645474 -0.24779357 0.31875187 0.1912577 0.37486652 -0.05133912 -0.12749706 0.18759967 -0.5762392 0.116165265 -0.37241042 -0.019145459 0.36889803 0.31572354 0.41447076 0.0716955 0.22898343 -0.11533814 -0.176751 -0.0112652965 0.10372639 -0.051951695 0.11595222 0.058110923 -0.39476457 0.014543005 0.057184707 0.043305457 -0.3595889 -0.005305943 -0.11932535 -0.21153468 0.100641504 -0.13841978 -0.14640075 -0.25521895 -0.041084167 0.2860051 -0.0064242478 0.04869647 0.0783178 0.097980544 -0.25047666 -0.09992742 0.22435579 -0.44048196 0.17408758 0.17155685 -0.24463451 -0.21593317 0.16795619 0.4008552 -0.0691473 -0.31983566 -0.33921424 -0.07806918 0.2484789 -0.21292 0.18759504 -0.013064095 -0.044609107 0.048316754 -0.19816379 0.17248562 0.16176829 -0.10577638 -0.040481318 -0.33487108 0.1406298 -0.11679073 0.13283454 -0.11213715 -0.56446236 0.051928397 0.031430103 -0.21094392 0.45540723 0.22091292 -0.010244249
http://www.semanticweb.org/ElementKG#hasRadius2 -0.13535385 -0.10557165 0.30972758 0.72424465 0.01268635 0.049797356 0.38725048 -0.090749115 -0.2474588 -0.5257507 0.13423945 -0.33541104 0.13387063 0.022811458 0.10454911 0.085860476 0.2646827 0.1402449 0.060641892 0.06798849 -0.17120351 0.006695266 -0.39011773 0.08147479 -0.19205214 -0.4228624 0.46697935 0.02578186 -0.20511481 0.0069592535 0.3469083 -0.38069677 -0.18574098 -0.057634853 0.06366121 -0.22531243 0.0009999014 -0.15163365 -0.25283808 0.3387235 -0.12984477 0.18208967 -0.039186887 0.22489741 -0.17329504 0.30101332 0.34557104 -0.27690458 -0.24041381 0.020283272 -0.01772997 0.24466577 0.29473707 -0.18007791 -0.27520755 -0.26202792 0.34725606 0.09967818 0.024712043 -0.133657 -0.19268143 -0.056208238 0.34390783 0.010148988 0.10095193 -0.36832228 0.16644332 0.3733392 0.1761775 0.08391292 0.2524126 0.4362494 -0.35213503 -0.18080331 0.5876933 -0.0038460263 0.6550834 -0.09380443 0.04230066 -0.0046056625 0.14442803 0.01156701 -0.3425658 0.29735014 0.16492426 0.0016692764 -0.3815386 -0.11357053 -0.035292335 -0.118955664 -0.37847924 -0.21174794 -0.1254004 0.18065888 0.044794083 -0.051449925 0.122475356 -0.14204425 -0.2379205 0.14105004 0.22533345 -0.20465544 0.25617462 0.32817015 0.041337024 -0.047498435 0.4161476 -0.033829898 -0.26037484 0.034169566 -0.42928195 -0.14667578 0.15515184 0.1057114 -0.44830376 -0.08298338 0.086989075 0.048879374 -0.5738568 0.13941576 -0.30288073 -0.17097631 0.21261218 0.20472655 -0.023627967 -0.09493517 -0.08003744 -0.15611024 -0.20510997 0.25744796 0.4861817 0.096621245 0.17927912
http://www.semanticweb.org/ElementKG#hasBoilingPoint7 -0.008524301 -0.13232835 0.107294634 -0.03483264 -0.17457335 0.051277734 -0.23312794 -0.1319773 0.26525363 -0.29558572 -0.015940532 0.31808466 0.6338948 0.21330264 0.092045255 0.40116775 -0.05829924 -0.18270533 0.0035901223 0.13198645 0.1785214 -0.03879856 0.2863746 0.1603222 -0.059929427 -0.44990987 0.29221153 0.08865861 0.029511118 0.07896571 -0.0271752 -0.28532255 -0.08352661 0.10193117 0.17660592 0.35192162 0.27550426 -0.2015419 -0.24640022 -0.036123153 -0.16949305 0.15208651 0.0057187034 0.10061113 -0.3779931 -0.14683118 -0.16797309 -0.35837045 0.36825055 -0.052031085 0.13570446 -0.17652453 0.1857133 0.14197381 0.0069842027 0.11391189 0.36408746 0.028803488 0.2698706 0.11581611 -0.26932478 0.13400644 -0.44309598 -0.6155956 -0.09489939 -0.19990812 -0.2912321 0.430673 0.0025155945 0.112045474 0.22038475 -0.09837019 -0.16610734 -0.3866296 0.036883533 -0.0531469 0.23181476 -0.06355855 0.33749244 -0.11826486 -0.0052607767 -0.32651913 -0.3879729 0.023079995 -0.23643906 0.35195345 0.045523833 0.07841513 -0.29922044 0.39611956 -0.18545324 -0.048256528 0.51093614 0.1858034 -0.121132925 0.2746314 -0.17004447 0.4574242 -0.006308941 0.18437666 0.092137 -0.16904895 -0.1662951 0.44015223 0.01900885 -0.33540672 0.43142807 0.15612796 0.1520706 -0.33022934 0.26788676 -0.2578958 0.21440554 0.15135323 0.04605988 0.5809564 0.026289163 0.16151078 0.5396942 0.082102 -0.22990768 -0.5174785 0.4856053 0.15006131 0.4548728 -0.16038452 -0.15019186 -0.071182415 -0.35089886 -0.106704526 -0.07331317 0.2762842 0.061627574
http://www.semanticweb.org/ElementKG#hasHardness3 0.0026868526 -0.12208285 0.37515184 0.18661836 -0.35433295 -0.23292255 0.21823528 -0.13425905 0.32460067 -0.07749767 -0.3988296 0.06021099 0.22558463 0.23185939 0.2887813 0.34492263 -0.22924984 0.0051820544 -0.006004803 -0.10828858 -0.22428206 0.4057059 0.29243243 0.20673725 -0.05286255 -0.29985392 -0.20115481 -0.0050193043 0.077565745 0.42985612 0.10545603 -0.10297573 0.045526 -0.7106342 0.11906427 -0.094757706 -0.1258165 0.3250814 0.15908383 0.5363497 -0.5404002 0.23331767 -0.041927848 -0.048132062 0.108241886 0.35309672 0.10498606 -0.12906276 0.21073224 -0.08465081 0.28640276 -0.112208426 -0.23442861 -0.12255946 0.49228224 0.22293307 0.10460993 -0.35357323 0.071503766 0.028761087 0.07963075 -0.07489834 -0.590032 0.430212 0.07036528 0.2820367 -0.09730053 0.3046659 -0.07711266 0.08774514 0.25552198 -0.40021694 -0.36227512 -0.2983406 0.35094714 -0.1283394 -0.07642107 0.037482675 -0.001562264 -0.07261491 0.08534691 0.08031853 -0.5309569 -0.028786467 -0.27284837 -0.22379199 0.065822825 -0.20973203 0.07263072 0.3726282 -0.16966794 0.08269121 0.46216258 0.23774901 -0.35715678 -0.07660717 -0.47020817 -0.2811074 0.07150063 0.18196468 0.20205118 -0.09379375 0.42913195 0.31715602 0.39794195 0.18873169 0.33508095 0.23981352 -0.1454638 0.109439135 0.14516269 0.041577224 -0.087897405 0.080957 -0.35407433 -0.18222286 -0.21746595 0.08375503 0.09011098 0.01307455 -0.0026529552 -0.07181414 -0.03759882 0.2867625 0.20739183 0.08360402 -0.13429515 0.20897797 -0.086699225 0.16687773 0.13261917 0.045472406 -0.17829321
point7 -0.033941045 -0.04156051 0.13757144 -0.2557944 -0.3350897 -0.041124083 -0.46943966 0.058250863 -0.14263237 -0.25754115 0.10041313 0.078511186 0.46564466 0.42954463 0.12617469 0.13240975 -0.43775445 0.19120364 0.048286445 0.33908266 0.15091632 -0.11619546 0.07463297 0.004973851 0.40548807 -0.24148156 0.06904812 0.001666187 0.28736138 0.09079018 -0.45537955 -0.52688026 -0.15548426 0.15817252 0.0406308 -0.14360203 0.11346411 0.33888102 0.014760799 0.08157645 -0.063199565 0.10297636 -0.124938086 0.20245919 0.011108429 0.16277362 -0.14274311 -0.21423417 0.49850515 0.034321677 -0.13215376 -0.3696504 0.61796695 0.102063105 0.23737285 -0.054458745 0.10477267 -0.038336426 0.021248784 0.057775952 0.009998427 0.2822038 -0.559663 -0.6597078 0.22376277 0.09907443 0.07947227 0.81481814 0.26185563 -0.20260613 0.34904167 0.30362222 -0.15284318 -0.36088482 -0.19875166 -0.061607428 0.2981596 -0.34496692 0.13060072 -0.11099894 0.13960373 -0.15429804 -0.5026309 0.21215034 -0.17046846 -0.062462788 0.34746933 0.028521901 -0.17977202 0.12586352 -0.3687979 0.08490581 0.14787862 0.31090206 0.12044268 0.14093357 0.24244893 0.43711415 0.16625886 -0.09237693 0.10974232 -0.1915618 -0.5625404 -0.09621368 -0.1415237 -0.21393126 0.30778506 -0.042607397 0.21059267 -0.6752464 0.5940877 -0.0018469688 -0.011934495 0.25153518 0.011695403 -0.04756773 -0.2397665 0.0798725 0.29374927 -0.09263271 0.3768122 -0.5315928 0.74265903 -0.04878146 0.012674949 -0.101581834 -0.18833697 -0.004238078 -0.529947 -0.13081075 -0.09920066 -0.20856959 0.10937071
boiling 0.050642833 0.051336076 -0.004833865 0.045103207 -0.29634792 -0.33914956 -0.06747459 0.040025845 0.4471463 0.07283773 0.053811107 0.08313309 -0.025832847 0.19530082 -0.0060742195 0.5268293 -0.098245904 -0.32415238 0.18458816 0.24720608 0.3178935 -0.14090474 -0.020312477 -0.03562356 0.16623472 -0.062627256 0.22399418 0.36417183 0.039990798 -0.103922084 0.0044282903 -0.49537644 -0.20685308 -0.050522503 -0.2165545 0.13470995 -0.28552407 0.12506865 -0.16215682 -0.0098834755 0.010364673 0.023554439 -0.086443044 -0.14570513 -0.03529567 0.566411 -0.015273426 -0.48653108 0.062721506 -0.017527167 -0.3058038 -0.26700902 0.36955887 0.21535024 0.24241507 -0.13486598 0.10397729 0.13185625 0.42292532 -0.013703685 0.12627599 0.4975477 -0.26353976 -0.43465203 -0.13284367 -0.11276532 -0.35095373 0.9154375 0.6754283 0.24953109 0.3552699 0.064075544 0.08231171 -0.1226437 0.20501246 -0.080214895 0.06489085 -0.078651436 -0.051499862 -0.12154605 0.15712999 0.018726273 -0.05275967 -0.059979815 -0.060357682 0.016632343 0.25536305 0.5789172 0.058630824 0.001318475 -0.030758835 0.16197607 0.20108253 0.31656066 0.07628929 0.29952368 0.0866057 0.22767515 0.27272737 0.02215818 0.14523737 0.06099217 -0.31993908 -0.18846726 0.44799465 -0.2872245 0.15065798 -0.09807231 0.23592655 -0.31164286 0.27795696 0.14706464 0.44477183 0.088116825 0.16304217 0.40896058 -0.10905107 -0.12278264 -0.08753154 -0.06543767 0.12397022 -0.08805034 -0.010398359 0.088862516 0.2772055 0.056424946 -0.2295747 -0.015652137 -0.08976744 -0.49668318 0.10596558 0.2204989 0.24487796
modulus1 0.0533478 0.2597002 0.08603001 0.11927077 -0.11630042 -0.20020315 -0.2814467 0.28322437 0.62297726 -0.47673324 -0.08300546 0.14706393 -0.31150043 -0.01885426 -0.1678476 0.23808694 -0.06683431 0.0019510357 0.22240305 0.12482242 0.5138482 -0.09232279 0.46997598 0.06400812 0.38266543 0.4752053 -0.006762107 -0.004991368 0.060996305 0.33581907 -0.17185535 -0.42160526 -0.09267447 -0.37929907 0.06416789 -0.23751456 -0.2652314 0.64942765 0.011274381 -0.21322604 0.038700014 -0.111707926 -0.20465034 -0.33879435 0.008628161 0.62387836 0.07143599 0.22388576 -0.4294732 0.1438769 -0.00053490355 -0.31053382 0.16131678 -0.2924848 0.45888978 -0.15174772 0.37110206 0.039974745 0.028505022 0.13847205 0.2633648 0.28139007 -0.28411853 -0.00036170468 -0.23742801 0.11368158 0.16378102 -0.1942217 0.15119676 0.11132057 -0.044124585 -0.06653787 -0.43673763 0.11970261 0.38285768 -0.067948505 0.1348761 0.20141779 -0.29115772 -0.024368763 0.39835665 0.27347004 -0.07071007 0.2974119 -0.13653694 0.031162383 0.08591146 -0.16809364 -0.034145836 0.016970377 -0.32472995 0.10069943 0.07064286 0.14737852 0.2149373 0.19919616 0.27572873 -0.31140518 -0.090828925 -0.44541374 0.03423014 -0.054344896 -0.5044763 -0.25321043 0.34250528 -0.057098478 0.25194153 -0.12132068 0.041709226 0.15102395 0.16594918 -0.21496944 -0.097387224 0.5699155 0.37721038 0.16277434 -0.052794296 0.4643336 -0.14849758 0.1262794 -0.24935886 0.1978452 0.37215438 -0.23734607 0.14553833 -0.15900993 0.36860967 0.22256154 -0.16200033 -0.3020427 0.3134206 -0.010949616 0.116396986
melting -0.056450784 -0.0046393606 -0.078498 -0.25089592 -0.6206769 0.026341317 0.16674204 0.32853425 0.17809594 0.06887291 -0.17584428 0.05109205 -0.36059663 0.16895431 0.22512174 0.18841082 -0.24257693 -0.00036403866 0.24014498 0.12736341 0.22520868 0.001210034 0.036711674 -0.32290998 0.07433022 0.20388865 -0.0070190774 0.4085644 -0.05347641 -0.31363657 -0.047751863 -0.034354582 -0.13827474 0.08384719 -0.1623085 -0.063015364 -0.28118962 0.21973334 -0.056311578 0.15913145 -0.10532085 -0.17983611 0.06618062 -0.097193256 0.35025778 0.5307519 0.2865298 -0.5200115 0.049578078 -0.06676647 -0.3675765 -0.17603135 0.2706953 -0.0043634498 0.5354 -0.7271904 0.024979806 0.022451755 0.2089497 -0.097276255 -0.007717576 0.5748503 -0.18620706 -0.1652769 0.07692865 -0.030323116 -0.1477994 0.6401118 0.41589436 0.113640025 0.35265622 0.29667535 -0.09980611 0.050578766 0.2089422 0.07761575 0.3428441 -0.1624856 -0.0820813 -0.14051278 0.38279358 0.18736003 -0.13582683 0.018193783 -0.123997964 -0.576688 -0.06645848 0.32780403 0.23577802 -0.022557069 -0.08410625 0.10197847 -0.090364486 0.31111535 0.14120315 0.06205285 0.16509633 0.09886999 0.01348099 -0.4731164 0.299322 0.23989084 -0.14232461 -0.15033565 0.16035758 -0.14376608 -0.106379956 -0.35678944 -0.21972343 -0.18632817 -0.18309377 0.12252649 0.21388431 0.23889072 -0.004737181 0.27534366 -0.057864983 -0.055968694 -0.3485335 0.110173866 0.12185426 0.0031287472 -0.31596377 -0.13617453 0.010619846 0.14440764 -0.23556063 0.025798688 0.07966529 -0.38351658 -0.1177294 0.096558884 0.31161606
http://www.semanticweb.org/ElementKG#hasRadius3 0.297275 -0.4147184 0.022213593 0.2991711 -0.060107216 -0.16617656 -0.4142455 0.0024722924 0.36738637 -0.26736298 -0.38084707 0.029548362 -0.11842606 0.12859896 0.36080334 0.32681674 -0.25651434 -0.15121125 0.31949523 -0.0580675 -0.12400292 0.05998106 0.56935453 -0.14386728 0.16222297 0.33362058 -0.20163538 0.4706071 -0.1940319 0.20790987 0.4558147 0.2674346 -0.058437623 -0.03597354 0.25979108 -0.12607314 0.01496477 0.44580686 0.24942902 -0.2652186 -0.06554276 -0.05587271 -0.12111977 0.25024164 -0.4120655 -0.28690866 0.42078885 0.5758926 -0.029005058 -0.40837407 0.05825904 -0.018232718 0.119349465 -0.31603694 -0.09089308 0.16256598 0.111646935 0.09477402 0.29588974 0.08370975 -0.09375566 0.3046967 -0.110878766 0.04353187 0.06601434 0.15999994 -0.35507512 0.12166293 -0.31716806 0.07914009 -0.014488197 -0.50045806 0.5250388 -0.10732508 0.29591238 -0.06483747 -0.16813786 -0.049691636 0.45153132 0.19672239 -0.12425188 -0.46187395 0.20276366 -0.08338135 -0.375266 -0.1486103 -0.3707987 0.06539583 -0.24483286 -0.61378056 -0.23503079 0.3068834 0.03538251 0.36213753 -0.29161894 -0.021992357 -0.2186563 -0.12093013 0.61543566 -0.15217753 -0.024350962 -0.40731227 -0.07968852 0.08706964 -0.2748162 -0.037694316 -0.10516652 -0.17911425 -0.23635682 0.32416785 0.2830518 -0.19832075 0.18969603 0.058993813 -0.29556525 0.04286954 -0.18018837 -0.046244036 0.10513954 -0.3525266 -0.19261743 0.39690778 -0.47089705 0.03677719 0.20918398 0.38356736 0.06679657 0.30058667 -0.19767681 -0.13155144 -0.071532056 -0.19099542 -0.07949577
radius2 -0.069947384 0.07968578 0.5316208 0.6189355 -0.081714146 -0.06409006 0.18598777 -0.07980501 -0.17832601 -0.55280423 0.27984267 -0.40593627 -0.07786507 -0.009917498 -0.04179317 0.036188383 0.18962066 0.32071877 0.23219532 -0.034274396 0.20596057 -0.105236076 -0.48049617 0.07090741 0.017818907 -0.29530025 0.47399017 0.13023157 -0.15004858 0.09279653 -0.03656775 -0.57270384 -0.15907885 -0.05794966 -0.15880297 -0.6401639 -0.060439415 0.17934619 -0.15671225 0.37950563 0.086268805 0.17692906 -0.13255942 0.09452076 0.01541905 0.5926114 0.20534529 -0.25133696 -0.19699498 0.064449474 -0.29355636 0.0006868105 0.66184026 -0.13820705 -0.14261128 -0.40324184 0.38806608 0.1523952 0.110715464 -0.087147646 -0.023981184 0.12883565 0.2513562 -0.097921476 0.07223846 -0.3103556 0.3627051 0.64421076 0.36676693 -0.031999636 0.4269338 0.54719 -0.284739 -0.018247139 0.24855499 -0.050307352 0.559548 -0.050897155 -0.058950886 -0.08575014 0.12626314 0.06524667 -0.38206533 0.40407217 0.18707015 -0.07400436 -0.34832612 -0.02526397 0.09784344 -0.12042656 -0.18487625 -0.018977003 -0.21497916 0.29104966 0.18640701 0.046972048 0.28123283 -0.083661854 -0.17068455 0.116528995 0.3287798 0.023630114 -0.02707761 -0.11903702 0.06657006 -0.13726345 0.3484137 -0.08794816 -0.09103544 -0.17068458 -0.3394023 -0.050776567 0.022306936 0.13208668 -0.17685768 -0.18305168 0.09446463 0.27675167 -0.696921 0.16937748 -0.088858455 -0.22095926 0.17888357 0.16243452 -0.18288219 -0.12109049 -0.20655958 -0.26673496 -0.13566665 0.008511475 0.5995881 0.09351132 0.22536981
http://www.semanticweb.org/ElementKG#Er 0.18544334 -0.20331869 0.0139438575 0.017410494 -0.08773569 0.19399382 -0.20323798 0.07076323 0.16101687 -0.35743898 -0.04604217 0.11549806 0.025193375 0.10154914 0.22696549 0.21894157 0.049158506 -0.124522276 0.22550857 -0.022428695 -0.2808816 -0.01589901 -0.02234336 -0.045504905 0.14973275 -0.10419574 -0.18759692 0.13964349 0.10220312 0.012369018 -0.0613226 -0.08207008 -0.15037912 -0.24980402 0.29869848 -0.14328593 -0.021789147 -0.061892554 0.046741694 -0.07675668 -0.04513665 0.040306903 0.008552917 0.0021249033 -0.097159974 0.040770784 0.0128481295 -0.052835476 0.007901456 -0.068639606 0.15130396 0.29232487 0.09011592 0.11347006 0.25538832 -0.3122026 -0.16133513 0.031575765 0.12220285 0.2545231 0.023083298 0.050196897 -0.15099981 0.07904443 0.10181922 0.16683348 -0.15233988 0.07919718 -0.058713693 0.29449886 -0.17171668 -0.15851189 -0.057817265 -0.39632252 0.19241938 -0.06081652 0.04839035 0.118523724 0.20708817 -0.1744149 0.19145879 0.060719226 0.16590612 0.29366374 0.09801954 -0.037416887 -0.008114769 -0.20257753 -0.08291391 -0.008755289 0.069236815 0.23413476 0.23963405 -0.16213079 -0.020882012 0.20093217 0.08008583 0.021996606 0.15641595 0.17165615 0.09734429 -0.13074054 0.2699244 0.52095634 -0.09351149 0.025783513 -0.1499305 -0.13722731 -0.0838098 -0.03666631 -0.12240106 0.19645181 -0.09491407 -0.12583429 0.019015834 0.13015497 0.15970987 0.028918752 0.018589523 -0.35667858 -0.28538373 -0.032972988 0.3041509 0.0255028 0.32887065 0.24041718 0.18926947 0.020810436 -0.18356578 0.068069845 0.097561516 -0.14360282 0.01887705
http://www.semanticweb.org/ElementKG#Dy 0.21759786 -0.19321239 0.032787893 -0.3388573 -0.088387705 -0.085887924 -0.3585114 0.008633302 0.18551932 -0.17816408 -0.11579048 0.06587425 -0.0147905 0.17731069 0.15665445 0.22313201 0.073239 -0.18129969 0.039656818 -0.05334514 -0.22757849 0.059825096 -0.12267464 -0.10537376 -0.023497354 -0.14178632 0.0114923 0.029953321 0.08668003 -0.012879412 0.049768925 -0.24895108 -0.140246 -0.08109242 0.20105532 -0.004405824 0.036376204 -0.015034936 -0.08382378 0.023839504 0.040799007 -0.00041934874 -0.026552137 -0.07272023 0.0051572435 0.011514036 0.216603 -0.07031111 -0.054569293 -0.041034874 0.4410976 -0.05125277 0.003363137 0.0053979605 0.23410691 -0.46231672 -0.05577056 -0.21817617 -0.021005535 0.26035458 -0.047593277 -0.18665351 0.0046949117 0.04219167 0.2732029 -0.003917288 -0.10588771 0.099641524 0.043484304 0.35437906 -0.44617194 -0.088206865 -0.020695677 -0.34841013 0.30834383 -0.028839897 0.10595477 0.018020123 0.2084807 -0.03508721 0.0644754 -0.12027125 -0.103811085 0.33540174 -0.25645345 -0.13477464 -0.2598696 -0.1775895 -0.11205901 0.023415824 -0.23438606 0.12567228 0.15972146 -0.057762496 -0.092159666 0.081610404 0.051800106 -0.12124991 0.27283376 -0.036053855 -0.14337853 -0.002882728 0.09050573 0.3762257 -0.060858354 0.13423175 -0.187253 -0.09252836 -0.04257106 0.25017983 -0.021118648 0.21267685 0.28147885 -0.21430412 0.056012854 0.23288566 0.16995567 0.06130798 0.13038 -0.1519033 -0.14293304 0.04441695 0.21435852 0.1614362 0.08129851 -0.03613569 -0.09863645 0.15653868 -0.27521762 0.010849611 0.19809318 -0.20096608 -0.25624514
http://www.semanticweb.org/ElementKG#Ho 0.258522 -0.22536024 0.11645743 0.036020473 -0.12747382 0.23632999 -0.17252973 0.08499215 0.027407404 -0.27744007 -0.11116729 -0.13452826 0.1420834 -0.07481418 0.14398815 0.4263577 -0.0071542077 -0.04759456 0.09644601 -0.12574942 -0.08992041 0.0043181707 0.040022746 -0.23357347 0.1019263 -0.0932203 -0.2242855 0.06409831 0.1043776 -0.13243912 0.12269962 -0.17004868 -0.17370634 -0.09111054 0.015518024 0.08017646 -0.029073896 0.0426651 -0.005779528 -0.1827956 -0.35106176 0.010171394 0.1197066 0.033919364 0.06433504 0.15304539 0.04239738 -0.020420307 0.07213365 -0.061738435 0.4242461 -0.053204324 0.12957828 0.25118104 0.092543006 -0.4198693 -0.060246244 -0.072874926 -0.01966449 0.45241445 -0.1523957 -0.10934057 0.07419176 -0.0044658748 0.19183894 0.35624886 -0.04242104 0.036588553 -0.077123016 0.32107466 0.023454227 -0.04057423 -0.23253009 -0.30710036 0.33446497 -0.19345073 -0.044192467 -0.022687946 0.1816548 -0.07993925 -0.10495795 0.049537025 -0.07383684 0.12049294 0.049480647 0.13051066 -0.079033494 -0.31960696 0.10134977 -0.061665606 0.043057226 0.056053016 0.024908612 -0.11222567 0.043640792 -0.0028694982 0.08841912 -0.056309983 0.2527039 0.028211487 -0.040617593 -0.13547598 0.13787481 0.26433745 -0.023107866 -0.062057763 -0.08621131 -0.19142117 0.00717547 0.11548251 0.1344523 0.08667716 0.058558833 -0.044066105 -0.004763195 0.41271392 -0.047604233 0.03795142 0.1439551 -0.47324777 -0.12708084 0.07053224 0.15755549 0.15630569 0.24403645 0.014504311 0.21576053 0.0580652 -0.118177585 0.1739613 0.015134035 0.09073068 -0.11781316
http://www.semanticweb.org/ElementKG#Pr 0.0635556 -0.12726264 0.14535652 -0.068166524 0.0054574534 0.23895417 -0.1770994 -0.038129076 -0.033187762 -0.434513 -0.27846134 0.07965225 -0.15077232 0.15315734 0.32158193 0.1035349 0.01843564 -0.17645593 0.13667749 -0.0945684 0.13351218 0.12526661 0.1461817 -0.1786103 0.2756207 -0.083861895 0.039575 0.1537142 -0.1377681 -0.15380506 0.033432137 -0.108254895 -0.19505772 -0.13054249 0.4932748 0.07144122 -0.062232293 0.037790205 -0.16246298 0.10181957 -0.038178302 0.062627874 -0.05429116 -0.04859254 -0.16184601 -0.075441584 0.121138975 -0.09828267 -0.19501057 0.10468861 0.266583 -0.07251262 -0.14968233 0.058309384 0.46005854 -0.38156477 -0.18030873 0.14663269 -0.0738339 0.35641962 -0.14750735 -0.07913241 -0.0031730842 -0.026602902 0.09910171 0.09244242 -0.21601179 -0.033859134 0.021135878 0.14172481 -0.017170642 0.0039276904 0.00083933456 -0.35363784 0.2197978 -0.16676182 0.102731414 0.28013977 0.11986959 -0.1286991 0.03234372 -0.1403954 -0.0063761813 0.18868445 0.017307233 -0.021888267 0.1455606 -0.20813607 -0.06176056 0.07306482 -0.21822076 0.042615533 0.06572156 -0.105236344 -0.07204427 -0.15272556 -0.12244318 0.1631483 0.10481852 -0.2145434 -0.03426389 0.0037639737 0.40734464 0.19864486 -0.06511896 -0.2626808 0.000601706 -0.023350714 -0.101332985 0.008280634 0.022973973 0.10310994 0.08245082 -0.27723154 0.14535499 0.17033325 -0.14307569 -0.086612076 0.1259928 -0.38210502 -0.14477289 0.072617576 0.08284759 0.1836315 0.049472954 0.10477499 0.024121564 0.16233875 -0.106247395 0.1313337 0.03894512 0.0065469714 -0.16665547
http://www.semanticweb.org/ElementKG#Nd 0.16661316 -0.034196287 0.044892628 -0.2175182 0.07010856 0.110999845 -0.14053455 0.040006936 0.029131671 -0.4671533 -0.37658188 -0.013171338 0.0030263788 0.13807587 0.2892213 0.2035276 -0.012494663 -0.16337863 0.06591533 -0.14749148 0.09604365 0.20613018 0.21104816 -0.21871546 0.27565342 -0.26340866 0.048930302 0.08782549 0.17432691 0.032804348 -0.13681166 0.053904507 -0.081299 -0.074449345 0.41154236 0.18701462 -0.14175357 -0.11664576 -0.07395032 -0.0051999637 -0.116298 0.120995924 -0.18946356 0.20278698 -0.2619871 0.06449103 0.08544624 0.02676939 -0.099195324 0.11475036 0.40543333 -0.14403826 0.0042195334 0.12431376 0.31918463 -0.3509393 0.10531203 -0.03918359 0.1235612 0.24007659 0.06169343 -0.01903293 0.17611188 -0.07773076 0.03666151 0.095441654 -0.28595707 0.056048367 0.11808353 0.05685337 -0.039932147 -0.026071647 -0.14523594 -0.3388284 0.23825571 -0.13097513 0.049207002 -0.032338627 0.17460017 -0.24925038 0.13297758 -0.046443507 0.14630203 0.07114642 -0.0846611 -0.21781605 0.037880886 -0.31552282 0.09258748 -0.058253918 -0.073901005 0.09253807 0.09494395 -0.17038478 -0.07177403 0.017889543 0.11354626 0.03165676 -0.0009600239 0.053379506 -0.010949749 -0.14045566 0.13699941 0.25515598 -0.07267945 0.15466583 -0.05288449 -0.12092144 -0.16689129 0.26524937 0.008553408 0.13729274 -0.15300654 -0.29837778 0.07924943 0.2648189 0.22142088 -0.06925905 -0.03575377 -0.2956873 -0.18605888 -0.19659515 -0.1013195 0.07943053 0.08599723 0.11904051 -0.012462057 0.22735395 -0.079754174 0.062022172 -0.11598464 0.042101707 -0.06472159
http://www.semanticweb.org/ElementKG#Sc 0.16776347 -0.23960637 0.005086333 -0.27244386 -0.045408197 0.15280256 -0.18058735 0.16340214 0.053973358 -0.46921772 -0.06192091 0.09995756 0.22909704 0.34165657 -0.07731726 0.17290586 0.012224204 -0.16778764 -0.029581452 0.05231995 -0.10515947 0.009080654 0.08019695 -0.41704938 0.28297952 -0.007000857 0.092431754 -0.040086627 0.03557062 -0.04390952 0.03954292 -0.08704374 -0.12702456 -0.18856585 -0.09197969 0.018979501 -0.2897925 0.15077971 0.26919213 0.18123418 -0.2756296 0.22033277 0.14649574 0.036782615 0.18157884 -0.045238636 0.057884574 -0.1141885 -0.14012209 -0.22121206 0.28085035 0.2076451 0.033150136 0.04608324 0.0887853 -0.23378299 0.19673753 0.041499987 -0.16494834 0.29193708 0.073142156 0.153098 0.018147456 -0.14343464 0.1255531 0.0062221494 -0.058392365 0.22761492 0.115907475 -0.0012097503 -0.2649336 -0.17031217 -0.06158866 -0.20648178 -0.060577456 0.1910731 0.020087466 -0.058894504 0.27816775 -0.09024056 -0.116899446 0.17343211 -0.0046221633 0.2197739 0.072950736 0.1736593 -0.08178004 -0.18741873 -0.29511237 0.20959376 0.04065716 -0.034129325 0.08976919 0.22807512 -0.04798865 0.13093616 -0.086772874 -0.14496312 0.11801993 0.043181155 -0.070065394 -0.074984275 0.3650815 0.29688612 -0.29955673 0.08507537 0.38506243 0.15346299 -0.2904378 0.21391568 -0.21204743 0.03868072 0.22551632 -0.008115008 0.0046808794 0.1111718 -0.026677558 -0.3933301 -0.15496959 -0.55078346 -0.35990477 0.021227758 0.08731395 0.10925958 0.32821158 0.15565103 -0.03700776 0.24430995 0.03303645 0.10699187 0.07404046 0.014969324 -0.32732025
http://www.semanticweb.org/ElementKG#Tm 0.17248821 -0.37558013 0.17672572 -0.08091424 -0.34672695 0.15502004 -0.2501151 0.06682371 -0.07974256 -0.3266003 -0.26871616 -0.09880381 -0.016740676 -0.000890521 0.22297885 0.08736584 -0.05552291 -0.084175326 -0.10948939 0.1966793 -0.16246457 -0.084562495 0.23399371 0.28623262 0.1923616 -0.2518065 0.042434704 -0.00022128252 0.14859678 -0.060723804 0.029485231 -0.37719622 -0.18736623 -0.052596167 0.16183445 0.10059614 0.008111928 -0.02782918 0.19232342 -0.35687375 -0.14611886 0.0028354607 0.1335237 -0.10323384 -0.107024945 0.038686603 0.013432994 -0.09029553 0.046338167 -0.31920516 0.2684212 -0.074373275 0.024650114 0.038897388 0.05943237 -0.2655524 0.15014717 -0.124403045 0.2183003 0.40967092 0.35042453 0.17026341 0.17894621 0.10751155 0.095652096 0.100491144 -0.10893655 -0.17900604 0.09023019 0.38452953 -0.11765022 -0.022258598 -0.09360657 0.004392893 0.1750494 -0.08728758 0.23014425 0.0726808 0.11005399 0.20788732 -0.07617888 -0.122589625 0.14054433 0.2622342 0.11315894 -0.13515191 -0.072792865 -0.2634207 -0.07745038 0.14914556 -0.32884577 -0.08409344 0.14068587 -0.1361896 0.055149734 0.042394653 -0.2175375 0.00813949 0.15893313 0.09462386 0.27856946 0.13659741 0.20297936 0.3688327 -0.18233033 0.19143082 0.022729104 -0.23024067 0.032025702 0.066005655 0.0004510219 0.23737377 0.15983625 -0.18444313 -0.045266215 0.18002072 0.12366652 -0.079089634 0.11651163 -0.42437613 -0.13328722 0.02528019 0.028400157 0.20205444 0.12056723 0.3620517 0.12621048 0.2171382 -0.34327564 0.042076368 -0.007307476 -0.05938776 -0.0875593
http://www.semanticweb.org/ElementKG#Lu 0.08595374 -0.26875135 0.17195448 -0.08438704 -0.3781602 0.15964957 -0.017788352 -0.08774396 0.10760275 -0.38166684 -0.19110145 -0.3252673 0.111078724 0.08847645 -0.12622795 0.039176233 0.116030805 -0.101680376 0.05761061 0.23997727 -0.135187 0.333491 0.13961977 0.18187714 0.11631753 -0.25452727 -0.13225956 0.035150737 -0.11136331 -0.06806233 0.19687453 -0.12978001 -0.17059804 -0.13899682 0.2768446 0.16687246 0.07127975 -0.118410714 -0.045498747 0.062542476 -0.1065303 -0.044694193 0.04797717 -0.110950224 -0.0046305778 0.2424773 0.26085272 0.08244085 -0.11626598 -0.0030173324 0.35307994 0.00016731297 0.104528226 -0.007046537 0.06634465 -0.24567612 -0.11412502 -0.1379262 0.081631795 0.39319453 -0.03602929 0.083873846 0.10863453 -0.052815612 0.11851112 0.30553225 -0.06383249 0.24648155 0.2495151 0.22666672 -0.04989913 -0.17806035 -0.15686768 -0.10261101 0.10672933 -0.036494344 0.10221252 0.1849484 0.2363379 -0.04810897 -0.095931046 0.07934524 0.20520455 0.23491986 0.03761205 0.049448118 -0.29062435 -0.12145714 -0.16057561 0.10105868 -0.30020845 0.04382997 0.22752489 -0.10116648 0.0678678 0.11929064 0.054753326 0.2813843 0.24102327 -0.030061653 -0.13464332 0.2457479 0.048173495 0.2571295 -0.28423825 0.15886368 -0.039300974 -0.13668787 -0.0033276265 0.05191288 0.13342178 0.10824166 -0.17174546 -0.12730385 0.040338185 0.03451311 0.2254459 -0.037554696 0.27021405 -0.35745716 -0.22550061 -0.025562454 -0.01236606 0.012975277 0.37251532 0.1985708 0.26386338 0.18062104 -0.31231686 -0.12200615 -0.0057546673 -0.17915785 -0.3688965
http://www.semanticweb.org/ElementKG#Tb 0.18668842 -0.35207433 0.084033 -0.086086296 -0.0113381045 0.22293265 -0.24707885 0.026654748 0.07175254 -0.15189259 -0.17490272 -0.027264263 -0.035435382 -0.030652191 0.1114467 0.33457106 0.23502779 -0.23311642 0.2200821 0.024330035 -0.10503174 0.25749502 0.16638516 -0.026989968 0.32166114 -0.055046834 -0.013808194 -0.011571051 0.26720226 0.041502234 -0.013734631 -0.14732935 -0.024201123 0.15787955 0.2660167 0.06051896 0.026722876 0.002636512 -0.009420535 -0.31460065 -0.045997757 -0.11833613 -0.1642882 0.00977158 -0.16362165 0.10558605 0.20905478 -0.16672875 0.061369352 -0.29436153 0.15029164 0.11994248 -0.06317393 0.008070933 0.11282209 -0.34112173 -0.111608 0.057873804 0.021448487 0.4091854 -0.025753334 -0.13436274 0.068834715 0.16308591 0.010455057 0.20127894 -0.059893202 0.398374 0.08374775 0.24051641 -0.11155331 -0.001163176 -0.13509892 -0.11720461 0.2989683 -0.12919839 -0.053040244 0.04426215 0.31435156 -0.06542981 -0.09972183 0.031039357 -0.09030584 0.14929141 -0.13706194 0.065460674 0.03505514 0.0127530685 0.005407243 -0.01763974 -0.18655734 0.09156843 0.25214142 -0.11328053 -0.04020442 0.15106116 0.13380577 -0.14602867 0.2766836 -0.036579538 0.011064444 -0.008876656 0.15380454 0.47500473 -0.0866826 -0.03034493 0.010638662 0.18808153 -0.30889472 0.12562098 -0.09780388 0.021100363 0.012203316 -0.091220655 0.1381803 0.0069348514 0.1716457 -0.08479165 -0.06073583 -0.2395784 0.013867217 -0.047925476 0.20642275 0.19187263 0.14935058 -0.109761335 0.25271752 0.15482578 -0.38203457 0.33751908 0.041034248 -0.04329965 -0.022826992
hardness3 0.07959211 0.038448744 0.6067798 0.05500397 -0.4356549 -0.32380438 0.0064852354 -0.1225355 0.4074728 -0.08878021 -0.24801417 0.011362095 0.020392146 0.1978393 0.13439657 0.30677077 -0.27787593 0.16525589 0.12701234 -0.24944177 0.15658337 0.2852107 0.19381669 0.22559026 0.17778932 -0.18803091 -0.15731503 0.09286426 0.11445806 0.5201821 -0.26685676 -0.25445697 0.08724797 -0.70228106 -0.13266751 -0.48278788 -0.18809913 0.65993184 0.25045964 0.5563885 -0.36396384 0.2302249 -0.1718921 -0.20248708 0.27752063 0.6399552 -0.016801849 -0.10433525 0.22310661 -0.034034483 -0.0110037215 -0.36258647 0.12477142 -0.0790721 0.64499164 0.07651107 0.12691297 -0.30895868 0.18598741 0.09321699 0.21713668 0.08039768 -0.6774372 0.31477392 0.06944007 0.31397715 0.09129903 0.5809409 0.078971125 -0.014184852 0.4177193 -0.3007526 -0.33635762 -0.11644668 0.038406137 -0.18317965 -0.18196344 0.10390315 -0.12329224 -0.14572796 0.04664458 0.14356534 -0.60839474 0.10355064 -0.30836183 -0.34038228 0.12341299 -0.09844079 0.18851662 0.3532907 -0.00043570175 0.2656558 0.37771532 0.36832374 -0.16107677 -0.031398863 -0.27257985 -0.2587944 0.1591329 0.15676534 0.25965658 0.13738221 0.1670719 -0.12635536 0.4709537 0.089242786 0.2922084 0.17995273 0.029667579 -0.088473104 0.22919175 0.16513868 -0.20448783 0.13434249 -0.07589253 -0.2553756 -0.22554566 0.28400642 -0.029223975 0.062921025 0.25104234 -0.09500522 -0.10226935 0.24867213 0.02500699 0.070823036 -0.2591591 0.14520644 -0.048034623 -0.07844824 0.23575783 0.03188869 -0.13763979
http://www.semanticweb.org/ElementKG#Sm 0.21273704 -0.20050006 0.0453854 0.08707302 -0.22419241 0.16432944 -0.24318351 0.11651651 0.19854467 -0.21796097 -0.374374 0.12632564 0.059157707 0.09657394 0.18494566 0.12938748 0.055797674 -0.22947222 0.26862723 -0.028816627 0.12066283 0.11446038 0.3421723 -0.12115622 -0.0066899806 0.07420244 -0.30582902 0.021805895 0.107616834 -0.028335443 -0.046439834 -0.39720863 -0.06413401 -0.014024409 0.34741366 0.09152813 0.04842002 0.19598514 -0.073854454 0.0309909 0.0445111 0.16175424 -0.0801934 -0.28768408 -0.21880788 -0.13653971 0.17218952 -0.005087095 -0.031200698 0.23197499 0.3999973 0.06613026 0.11235787 0.13340087 0.0025247773 -0.29288134 0.108256124 0.03324737 -0.1316233 0.21005581 -0.007948507 -0.18598673 0.010197013 0.037718944 -0.036956906 0.115303375 -0.30631474 0.014265762 0.15083823 0.03976318 -0.055995308 -0.24142048 -0.1737888 -0.5371497 0.103076465 -0.18269184 0.24677444 0.23708124 0.18329515 -0.49415883 -0.16827588 -0.17450307 -0.12054368 -0.18135323 0.07213382 -0.2298772 -0.0324952 -0.3303822 -0.17216526 0.08640786 -0.059116777 0.11333398 0.0017249592 -0.1904195 0.25836766 0.16215879 -0.23828422 -0.05951678 0.1309381 -0.16934781 0.07899647 -0.07856622 0.10933386 0.30177093 -0.1815749 0.0066479715 -0.004731255 -0.147951 -0.13253827 0.22760898 -0.21515083 0.2486234 -0.012479488 -0.2658476 -0.23072971 0.16905631 0.011657069 -0.13797724 -0.17847756 -0.320371 -0.06843254 -0.21829864 -0.001849388 0.16665727 -0.061452813 -0.12012337 0.15957889 0.05269608 -0.02237079 -0.044056773 -0.06755573 -0.09835981 0.082069665
http://www.semanticweb.org/ElementKG#hasPeriod6 0.45709515 -0.25319353 -0.09012752 -0.22166423 -0.3812701 -0.48412505 -0.4706151 0.1266249 0.030539585 -0.2577473 -0.36790025 -0.007055032 0.2351488 -0.012355236 0.27073634 0.024472868 -0.012450083 -0.14239281 0.1491356 0.07483815 0.0060690455 -0.030315375 0.17449844 -0.07369526 -0.0865432 0.04988152 0.09197349 0.42102155 -0.30657142 -0.05016989 0.14191917 0.1620772 -0.3046332 -0.25455618 0.4408715 -0.1227615 0.40065622 -0.23414147 0.16350468 -0.20495528 -0.43408376 -0.2873449 0.27700132 0.24360552 -0.38465184 0.44950002 0.31271616 0.36202693 -0.4579317 -0.36409763 0.28455657 0.2726257 0.31348273 0.03374134 0.054738745 -0.4119101 0.3874561 -0.13356955 0.16219814 0.16527702 -0.024698831 -0.098755874 -0.12669902 -0.039854378 -0.19025797 0.15871345 -0.032090764 -0.017633602 0.23417285 0.15136397 0.20237514 -0.10045479 0.0754005 -0.29543698 0.63415915 0.36660892 0.20294875 0.34105536 0.3395368 -0.1616434 -0.06436611 0.17841646 0.33849213 -0.2563201 -0.3923921 0.059360657 0.080269344 -0.14419745 -0.34304768 -0.061508067 -0.26413438 0.20746703 -0.31343916 -0.15636805 0.24152778 -0.01198709 -0.28569725 0.08933934 -0.1807164 0.17651503 -0.0046013407 -0.48593923 0.3728764 0.09272902 -0.08629083 -0.40167034 0.07472944 0.052100874 0.123192795 0.3329431 0.0053680204 -0.36109608 0.050190162 -0.21313836 0.16655481 -0.08549084 0.10726483 0.06691543 -0.09059408 0.407684 0.40847734 0.23069566 0.107197486 0.425295 -0.09568427 0.23164229 0.5257835 0.19155996 -0.35979238 -0.059531845 -0.038444486 -0.0027254757 -0.021696985
http://www.semanticweb.org/ElementKG#La 0.06612853 -0.12949415 0.16783735 0.016295055 -0.12367267 0.289502 -0.08881192 -0.06215504 0.28429163 -0.47933686 -0.31722268 0.041163124 0.09692742 -0.06005333 0.38788158 0.38394964 0.12403297 0.051301815 0.045615528 -0.17322402 0.0621467 0.069121175 0.12122573 -0.0828086 -0.013440171 -0.24938984 0.13814832 0.2480822 0.2613497 -0.19823468 0.15574476 -0.123983 -0.23707734 -0.21665242 0.38700563 -0.08385474 0.07881033 0.030673655 -0.24137509 -0.1175139 0.018858166 -0.20373556 -0.27728632 0.073165275 -0.22652465 0.116928786 -0.13799325 0.038688663 -0.10726376 0.1464903 0.2109529 0.01845262 0.020431826 0.1385251 0.19998154 -0.29506364 0.079978764 0.08745661 -0.1392703 0.25720507 -0.081697606 -0.21513414 -0.15116364 -0.109049715 0.0049667982 0.060087845 -0.1942586 0.05557128 0.02012006 0.30980736 -0.07955479 -0.106525175 0.032596197 -0.13964903 0.2192556 -0.103821166 -0.041752253 -0.09505904 -0.044866007 -0.14964418 0.084732376 -0.25622773 -0.06083229 0.13879585 -0.07368918 -0.10662311 -0.10275989 -0.3977616 0.06029794 0.06957505 -0.054993972 -0.021384474 0.0036567196 0.19564189 0.120440945 0.03827289 0.02446931 0.20064461 0.17839353 -0.005462777 -0.080919996 -0.23162694 0.074767195 0.30760068 -0.14129846 0.046493966 0.06938704 -0.11827617 -0.15308343 0.20313896 -0.34177992 0.1704871 -0.047608335 -0.25943854 0.03354001 -0.007901858 -0.08433283 -0.18859094 0.020780087 -0.3660135 -0.1473683 0.077685885 -0.0060177795 0.05427939 0.010961167 0.107194476 -0.0015624479 0.10675832 -0.28739464 0.01953175 -0.15520544 -0.13564342 -0.1059612
http://www.semanticweb.org/ElementKG#Ce 0.1391355 -0.31251988 0.11881558 0.23531212 -0.10680687 0.058511388 -0.059064377 -0.07606582 0.12954554 -0.21089788 -0.24314496 0.24864674 -0.07794752 -0.1462683 0.1359576 0.037831966 -0.05546735 -0.0032924425 0.20218086 0.0060801585 -0.096797034 0.093170166 0.19346757 0.02765286 0.23590222 -0.121031515 0.09390255 0.33499035 0.3251644 -0.017352328 0.069321394 -0.009560189 -0.09881313 0.064118065 0.332637 -0.10966369 -0.015961442 0.14748389 -0.17300324 -0.0040307515 -0.19304305 0.05404391 -0.16181484 -0.05042424 -0.47172788 0.03234946 0.0013230887 0.20132393 -0.23917434 -0.0024541956 0.44148487 0.005707641 -0.01822628 0.14618784 0.22520414 -0.43354434 0.013334856 -0.053499904 0.18112358 0.14742385 -0.23917587 -0.16483705 0.04256698 -0.06811075 0.02787112 -0.03568418 -0.32666782 0.07618155 0.024151638 0.27223137 -0.05157262 0.060744096 -0.17522621 -0.35475713 0.04978762 -0.21628317 -0.035650097 0.13163966 0.07185163 -0.17616357 0.030218676 0.07512427 -0.04345952 0.12773521 0.115521476 -0.03220129 0.0077913213 -0.43442017 -0.030248065 0.10751774 -0.25621292 -0.08084309 0.032413814 0.12948033 0.07883237 -0.2033199 0.07366241 -0.11953703 0.27438936 0.07030601 -0.171572 -0.1698081 0.24644873 0.22409663 -0.12350912 -0.08913281 0.0012710742 -0.21386853 -0.20322727 0.12380639 -0.1960095 0.289829 0.13409916 -0.12212619 0.04292745 0.33478272 0.030244907 -0.21368384 -0.056368258 -0.19283761 -0.039542813 -0.29948622 0.030171184 0.039564464 0.26517004 0.22430064 -0.095254794 0.085981734 -0.2639755 -0.050299354 -0.078395486 -0.23652473 -0.07616095
http://www.semanticweb.org/ElementKG#Gd 0.06421415 -0.19321631 -0.05679784 -0.014431823 -0.27846962 -0.0488019 -0.34278712 -0.2301755 -0.19447862 -0.29791808 -0.074582085 0.12520988 -0.14660157 0.015909193 0.24891077 0.31591615 0.060474686 0.16266593 -0.06759771 0.06717556 -0.05317833 0.041891888 0.2926295 0.10655748 0.09767063 0.1169937 -0.058510803 -0.28351462 0.18323669 -0.12225088 0.1096916 0.055140898 -0.13768275 -0.08515606 0.014001131 -0.14922827 -0.045455422 0.04362116 0.05520068 -0.07245018 -0.030741872 -0.1335973 -0.3483473 0.13931607 -0.22825693 0.18135715 0.040403564 -0.27534446 0.06414277 -0.07130951 0.27563262 0.04294613 -0.051538337 0.24263695 0.3180411 -0.20873575 -0.29258734 -0.16102691 0.08420718 0.44753787 -0.17120525 0.047600072 0.12560955 -0.24198641 -0.14651994 0.22198239 -0.017751733 0.2694234 -0.10865421 0.12690909 0.04301418 -0.259151 0.026581876 -0.395127 -0.014375417 -0.1367996 0.19562896 0.08533293 0.25550237 -0.15215373 0.07230703 0.16998796 -0.08720614 0.12554371 -0.26266378 -0.13987151 -0.03185128 -0.31012377 -0.051685452 0.11495038 -0.2013722 0.06146628 0.25269797 -0.06609742 0.10636941 0.1261801 -0.07553636 -0.091383055 0.19724455 0.0055617434 -0.0018312869 -0.07499739 0.15948184 0.2184208 -0.27931258 0.18121275 -0.1497379 -0.14363396 -0.30915472 0.11926683 -0.07892093 0.051680755 0.12736829 -0.3387027 0.07881425 0.4195353 0.07105787 -0.017049424 -0.18125948 -0.35926604 -0.20556015 0.25402966 0.30171046 0.3537962 0.16995387 -0.019905182 0.19032067 0.12742619 -0.22081451 0.09503311 0.26196125 0.08686088 -0.22309315
http://www.semanticweb.org/ElementKG#Y -0.11184276 -0.25949895 0.12297976 -0.21076837 0.12774332 0.14290804 -0.20044008 0.23210754 0.07786933 -0.10650454 -0.31492448 -0.11402903 0.056098487 0.17536399 0.05247746 0.15377818 -0.01968431 0.20804018 0.031229457 -0.008256058 -0.25986373 0.09203619 0.050897356 -0.2654714 0.38121065 -0.06445708 0.0020207255 -0.109936975 0.34443808 -0.06903418 0.19037335 -0.22377305 -0.16589125 -0.3904885 0.10414687 0.058457393 0.0020611123 0.4195963 -0.1493017 0.15872508 -0.22350545 -0.05405974 0.082645714 0.07268253 -0.120246865 -0.2437599 -0.09113305 0.022383077 -0.094559304 -0.15284503 0.39949432 -0.14339522 0.22898705 0.20100115 0.041853078 -0.20611621 0.111579046 0.09269012 0.14566469 0.007058409 -0.1010742 -0.030510876 0.01837268 -0.0476356 -0.037252188 0.17988196 0.08053124 0.15948737 -0.046662606 0.19182888 -0.037442666 -0.2884079 -0.071650155 -0.14520271 0.07678633 0.26866016 0.29786 -0.11463931 0.11329477 0.11991433 0.10344533 -0.038329292 -0.0100295 0.22978179 -0.003205481 0.029792134 -0.09270874 -0.07469414 0.05792164 -0.048972603 -0.15008242 0.24343938 0.37151247 -0.2917944 0.22009408 0.21902062 0.08181529 0.17188558 0.16997437 -0.02599008 0.08493611 -0.015854977 0.36197004 0.5428061 -0.120104216 -0.19122347 -0.14011702 0.17267503 -0.28837666 0.16088209 0.16420421 0.12774521 0.41063577 -0.34986252 0.013153823 0.18300861 -0.039573073 -0.14112036 -0.15942736 -0.0059151426 -0.3427226 -0.0613415 0.06406694 -0.08562074 0.10375729 0.18788476 0.2873552 0.08315494 0.09885088 0.027473733 0.12929134 0.034819443 -0.28703994
http://www.semanticweb.org/ElementKG#Yb 0.13806455 -0.10376168 0.14500809 0.09279702 -0.18691951 0.011526237 -0.20362866 0.110236004 0.20620273 -0.32116482 -0.30761215 -0.06973479 -0.30952567 -0.09558279 0.21209328 0.18138412 -0.011449924 -0.22614874 -0.10354725 0.116545804 0.079048306 0.054848973 -0.03912863 0.014832946 0.053928435 -0.17287241 -0.21173908 0.34682542 0.0217244 0.25799128 0.0007332495 -0.16372435 -0.1496982 0.12963991 0.37642932 -0.1297171 0.04098652 0.11867931 -0.022629894 -0.11274844 0.0100344075 0.04371736 0.03296267 0.13291764 -0.072987095 -0.026949791 -0.04879239 0.059661083 -0.22475407 0.10203581 0.30061752 -0.14524198 -0.25601244 -0.3351275 -0.13000888 -0.3672774 0.087454624 0.023780061 0.08812299 0.20181216 -0.102939546 -0.4186497 -0.12091853 -0.12103461 0.16689077 0.27376089 -0.14228334 0.16229808 0.11322109 0.31371278 -0.021524573 -0.02734778 0.27252522 -0.22333004 0.09941711 -0.32552433 0.20933017 -0.008615006 0.110342555 -0.40883785 0.17608547 -0.09295733 0.061269432 -0.16003804 0.122195564 -0.26882547 0.10916204 -0.31739515 -0.06696461 0.13201627 -0.011528859 0.2884121 0.013041255 -0.12533207 -0.07718325 -0.024347143 -0.061837405 -0.07721123 0.1937123 -0.17098881 -0.022179054 0.1765287 0.30606195 0.30228144 -0.07875556 0.077987485 0.080913655 0.13212189 -0.35166797 -0.01640108 -0.016493224 -0.18842982 0.093897015 -0.17322803 -0.09579643 0.27677304 0.107346244 0.04574993 -0.17220168 -0.44305295 -0.32012776 -0.29905683 0.11229841 0.09597087 0.060311947 -0.3891681 0.29215315 0.14254314 -0.2492267 0.16715983 -0.241251 0.07619924 -0.08899297
http://www.semanticweb.org/ElementKG#hasFamily3 0.100859374 0.1976826 -0.17194039 -0.07754986 0.027603997 -0.0068847854 -0.22171317 0.2325757 0.13599691 -0.081211016 -0.47908455 0.2651684 -0.20334241 0.12726726 0.14594479 0.19471145 -0.23796394 -0.11481114 0.091222614 0.0467639 0.19110253 0.26995188 0.778744 -0.10263873 -0.10845206 0.14254385 -0.14991112 0.57160383 0.23032115 -0.022537163 -0.0714248 -0.085874535 -0.5182434 -0.13064128 0.09542639 -0.05217054 0.21963492 0.34125093 -0.12311055 -0.30651587 -0.42760527 0.15528831 0.13306169 -0.003930177 0.16895744 -0.050693594 0.50889945 -0.0019498061 0.4603705 -0.12431812 0.38599172 -0.049659193 -0.4560551 0.34613264 0.060013242 -0.21038012 -0.12548867 -0.36607134 0.0034137554 0.5138671 -0.23438214 -0.054418586 -0.24804285 -0.016135855 0.017336227 -0.042321313 -0.4500637 0.23142013 0.09368432 0.3901866 0.12879735 0.10865938 -0.025358014 -0.16405466 -0.1360506 0.25987718 0.11365455 0.19997276 0.57488805 0.08004507 0.54806465 -0.3584979 -0.22472312 -0.031859163 0.21646664 -0.23152526 -0.08682862 -0.27602088 0.0043780715 0.42169774 -0.07547861 -0.083410345 0.19989406 -0.020104794 -0.064981446 0.26556158 0.20761882 0.3586964 -0.36254877 -0.50385314 0.18674044 -0.20965675 -0.12570229 0.32698864 -0.22771785 0.08962483 0.14658317 -0.14122108 -0.14984088 0.15006398 0.014681366 -0.18276966 -0.1604318 -0.0136451945 0.0035935503 0.15726663 0.15698163 0.22012715 0.40048808 -0.092547156 0.061890658 0.11827878 0.29156053 0.2658731 0.2807137 0.47044235 0.32196856 0.16368623 -0.18034849 -0.10942543 -0.18505019 -0.31248415 -0.14307104
http://www.semanticweb.org/ElementKG#Bi -0.022655882 -0.13554217 0.0730845 0.26568097 0.023043046 0.26172313 -0.22259672 0.076804064 0.12416995 -0.33743176 0.08857757 -0.19066574 0.16668208 0.3191049 0.24342047 -0.0032018328 0.07970184 -0.16309384 0.012861893 0.12220147 -0.29383656 0.09566636 -0.08525311 0.31059325 -0.063077085 -0.2798836 0.13808115 -0.05078482 0.14606133 0.25036588 0.22277695 -0.24226077 -0.5249998 0.18818179 0.3180405 0.20126635 -0.2339448 0.046413537 -0.025733666 0.052499227 -0.1898325 -0.26379606 0.03942995 -0.2543247 -0.11291637 0.51425 0.031436518 0.05432525 0.14985567 0.04019485 0.33561233 -0.24614675 0.06078424 -0.057897203 0.009948822 -0.46825698 -0.13260117 0.2350259 0.10790546 -0.061173305 -0.0048929406 -0.14426845 -0.061327457 0.25390482 -0.28882545 0.091859154 -0.19046295 0.050992224 0.1832938 0.24529576 0.041258164 0.05268758 0.13680832 0.1420423 0.080537274 0.15479144 0.06849767 0.06259575 0.32654282 -0.29577196 -0.07684445 -0.07335739 0.16202903 0.04879979 0.122073986 -0.07198889 -0.14985378 -0.09973413 -0.13421522 -0.083829306 -0.43010357 -0.1342002 0.27236256 -0.14850123 -0.05998974 -0.19465967 -0.19594918 -0.07017763 -0.10067566 0.22061583 -0.21654709 -0.27149186 -0.13230093 0.28209555 -0.06984207 -0.08433896 0.15321887 -0.27007052 0.0072223246 -0.14174296 -0.060687978 0.099498354 -0.04768202 0.08787474 0.20674378 0.19074196 0.029821536 -0.0058259503 -0.18030566 -0.019485373 0.0052404027 0.2581819 -0.1637953 0.15997058 0.15400532 0.21034856 -0.020375915 0.23206936 0.008242166 0.4281751 -0.07571357 -0.047684897 -0.10941688
http://www.semanticweb.org/ElementKG#Sb 0.10516799 -0.07743562 -0.10940328 0.21893743 0.2544801 0.25236514 -0.07400892 0.0077751307 0.0334 -0.26711223 -0.37834716 0.040141385 0.031503856 0.16697961 0.05460374 0.12628555 0.22516489 -0.12054514 -0.14372782 0.191126 -0.0052806744 0.09234733 -0.19180107 -0.06378937 0.12767968 0.028205313 0.12290475 0.2593059 0.12403547 -0.14506711 -0.17516471 -0.51154053 -0.20616646 -0.0930355 0.06072346 0.24486242 -0.23840557 0.15194519 -0.23498696 -0.2791262 -0.2258017 -0.3781351 0.019388175 -0.061851475 -0.15937364 0.121648476 0.023360284 -0.03588737 -0.16244851 -0.0014026612 0.056039494 -0.1939849 0.1413388 -0.25221872 0.05725375 -0.07190262 0.20936532 -0.25063014 0.29855686 0.048060883 -0.4933446 -0.041505434 0.13474125 0.18084536 -0.15917322 0.14908805 0.006501883 0.11251814 -0.11051884 0.13785386 0.2041877 -0.26264855 0.065847516 -0.1674157 0.10217782 0.22818856 0.108377405 -0.07213391 0.081953295 -0.19934215 0.15860261 0.07889693 -0.34529337 0.1443973 -0.14359623 0.05171478 -0.07286573 -0.27294374 -0.40568838 -0.097304985 -0.09741838 0.14955279 0.115300685 0.18380676 -0.27791378 -0.235122 0.04890625 -0.10190714 0.050995857 -0.14075911 -0.083548 -0.20579988 0.25034818 0.49087873 -0.047206327 0.19909023 0.11937599 0.0876664 -0.017674658 -0.5378291 0.015326148 0.36325604 0.052518357 -0.22045143 -0.053883836 -0.031299867 0.056409564 -0.12722677 -0.13468255 0.088828176 -0.17118473 -0.090176255 -0.25940353 0.0206619 0.09639179 0.066211544 0.21259318 0.024569606 0.11102999 0.19920987 0.09745117 0.026109086 -0.22898969
http://www.semanticweb.org/ElementKG#Ni -0.19470105 -0.22788674 0.1906455 0.26350373 0.10978633 -0.05952947 0.13083158 -0.024930717 -0.012771564 -0.23118536 0.13056885 0.3547121 0.29151833 0.39611247 0.25325203 0.20070268 0.18281385 -0.08350326 -0.11579831 0.19760771 -0.23069367 -0.037015412 -0.2238399 -0.101294056 0.14544055 -0.0934008 0.33864272 0.21706337 -0.2885742 0.046634253 -0.061388645 -0.01436316 -0.28316057 -0.12336046 0.15046908 0.26322553 -0.10001098 0.13072729 0.23440202 -0.3818228 -0.32580584 0.00551997 -0.0994951 0.055242423 -0.041978512 -0.03796788 0.28178445 0.1628793 -0.04496331 0.17961982 0.119661346 -0.09855274 -0.024535736 0.1305678 0.14841695 -0.40075925 0.09051892 -0.11904912 -0.050446313 0.16384281 0.013120658 -0.019577751 0.0063378117 -0.009395079 -0.027849803 0.34222093 0.049982324 0.33811674 0.082762465 -0.06584606 -0.12118703 -0.1432751 -0.07276962 0.102786906 -0.021319972 0.20645264 0.4156655 0.011654913 0.21643029 -0.04348138 -0.18626124 -0.14847052 -0.32161573 0.0805262 -0.016413657 0.20793429 -0.015784983 -0.36739704 0.13806327 0.28824335 -0.16518089 -0.015715754 -0.12985207 0.15371102 -0.28687018 0.31592947 0.0039646914 -0.07328315 0.2572779 0.108019225 0.08505927 -0.044495076 0.0970188 0.36413723 0.17317435 0.08724821 0.06750798 -0.08565962 -0.31830603 -0.03204473 0.007718723 0.059066292 0.0068422966 -0.10389529 -0.06260217 0.09402932 -0.0025055537 -0.045517653 -0.31926537 -0.045671143 -0.024549656 0.029664844 -0.06546745 -0.2778408 0.37186912 0.028599845 0.08087749 -0.041930456 -0.09851332 0.2549224 0.08062777 -0.030094735 -0.02286631
http://www.semanticweb.org/ElementKG#Fe -0.0022917087 -0.273345 0.1011545 0.20080143 0.121343225 0.032474678 -0.1480272 -0.16213553 0.070631996 -0.11060522 -0.06785693 0.039233834 0.46307415 0.517712 0.19131207 0.22744638 0.26897967 0.016327439 -0.010316324 -0.0054747667 -0.15445077 -0.045277882 -0.14587317 -0.021327017 0.18580776 0.0018533883 0.14167866 0.43472213 -0.034126565 0.0039072456 -0.22439027 -0.13064174 -0.25229585 -0.2325054 -0.02886706 0.35671675 -0.094572805 0.023917956 0.21010888 -0.03741459 -0.24918263 -0.038612638 0.026556138 -0.15074171 -0.0315735 0.038214948 0.49542648 -0.09787343 -0.033692818 0.002264446 0.263298 0.08411193 -0.006951452 -0.21000409 -0.105949566 -0.13513485 0.06702908 -0.06979661 0.17489702 0.0031873463 -0.30015153 0.33553317 0.044778418 0.13366242 -0.13544591 0.26191902 -0.09407679 0.12301091 -0.15576588 0.18992172 0.028739499 0.015108189 -0.025289368 -0.1660522 -0.0034671768 -0.032350432 0.05581672 -0.116279006 -0.033999853 -0.081714354 -0.0967307 0.048362076 -0.15124172 0.17074119 0.14528322 -0.03563039 0.111584246 -0.13962546 0.053334855 0.37639326 -0.22503138 -0.00860016 -0.23279512 0.00034776342 -0.2668793 0.30717343 0.095917 -0.12345155 0.029259326 0.24490897 -0.12692395 0.057147924 -0.080725 0.45535225 -0.22191672 -0.18354863 0.101396665 -0.008492653 -0.44665757 0.05298128 -0.027737381 -0.13672855 0.027437625 -0.059536017 -0.15685736 0.11081775 -0.094503924 -0.19753699 -0.20272574 -0.153936 0.02796094 0.07678288 0.10740871 -0.22870235 0.08317136 0.034594588 -0.094649695 0.17109941 -0.20312113 0.2713708 0.31346634 0.13411929 -0.17755552
http://www.semanticweb.org/ElementKG#V 0.012696569 -0.11243645 -0.020347724 0.13549274 0.020747531 -0.027994428 0.13704735 -0.13135082 -0.12970392 -0.36218262 -0.05430833 0.07247837 0.11712251 0.42533502 0.19731812 0.18158315 0.19302619 0.061725244 0.082619146 0.06266011 -0.09364588 -0.010924984 -0.06405017 -0.3326701 0.24960253 -0.24585062 -0.030697813 0.14904687 0.029898368 0.16259708 -0.30423555 -0.120025516 -0.32111928 0.23169866 0.33247957 0.063111715 -0.029675836 0.049619038 0.2642718 -0.27247348 -0.3631403 -0.028065171 0.07975656 -0.082392715 0.014008648 0.25802976 0.19971707 -0.113285646 -0.16811381 0.1952152 0.26710695 0.103481494 -0.094029285 0.1492649 -0.001948654 -0.13185927 -0.0025209975 0.0022943965 0.21670671 -0.048117206 -0.3364911 0.29442713 -0.07377025 0.023851644 0.06688633 0.28781036 -0.017071268 0.28159946 -0.13901365 0.09998174 -0.22354904 -0.2832172 -0.0034356555 -0.15033232 0.07756692 0.09063332 0.11701455 -0.28395197 -0.08242351 -0.07488453 -0.19859031 -0.01990479 -0.27924246 0.099896915 0.18219893 0.22083706 -0.3367487 -0.2228604 -0.032950364 0.22487026 -0.3217508 -0.3012845 0.0877808 0.2745644 -0.31034055 0.30547392 -0.048467834 -0.10417104 0.18184677 0.13945608 0.040596694 0.13544007 -0.016635166 0.3569453 0.120908305 -0.15937816 0.24443844 -0.0021025126 0.02301649 0.1408538 -0.04014163 -0.16628583 0.21440285 -0.32839707 -0.14659886 -0.09700811 0.008275856 -0.052878205 -0.20288272 0.012442409 -0.11062597 0.12564144 0.04678897 -0.08044385 0.034489628 0.07130004 0.05475498 0.11510293 -0.020827478 0.37172294 0.027069569 -0.12545842 0.012761869
http://www.semanticweb.org/ElementKG#hasElectronegativity2 0.58479494 -0.3591804 0.084382005 -0.26336938 -0.0075048977 -0.13335519 -0.12778643 -0.17621367 0.24203716 -0.30219543 -0.21613784 0.04214354 -0.3697358 0.22909857 0.50255597 0.09101982 -0.28557205 -0.4965007 0.0033344526 -0.031687174 -0.20195566 0.4517029 0.40137953 0.051730964 0.015529227 0.18748458 -0.19141316 -0.03262051 0.22436039 -0.17596154 -0.29125258 -0.010340428 -0.31244898 0.074724555 -0.14403488 -0.11268438 0.05893096 0.30191788 -0.2303637 0.09200527 -0.512093 0.07259074 -6.846429e-06 0.03658327 0.021949459 -0.058653537 -0.017462894 -0.029423125 0.7550078 -0.109123856 -0.07262386 0.18542716 -0.31205842 0.1317199 0.24100879 -0.30229732 -0.039060317 -0.18170312 0.12338675 0.29891378 -0.34253198 -0.15312588 -0.13312262 -0.069487475 -0.29131252 0.111785404 -0.6163464 0.04843973 0.18533216 0.064410366 0.20304415 -0.10453564 -0.018850192 0.22457334 0.3757737 0.028446166 0.5627678 0.07294467 0.33251753 0.36647847 0.24774545 -0.41623875 0.047677886 0.1938067 0.2583073 -0.2431042 0.081968255 -0.04919141 0.11403789 0.6134558 0.21322855 0.039235506 0.40123075 0.21864966 -0.037474517 0.17987217 0.4308149 0.1671137 -0.12174581 -0.23036139 -0.23214103 -0.18510652 -0.06968257 0.36409086 -0.09929817 -0.21036078 0.39664406 0.37126583 -0.12514561 0.3629427 0.15276855 -0.09804087 0.193627 -0.0011323813 -0.330012 0.029179627 -0.08596954 0.31672654 0.19373648 -0.28616416 0.05954554 -0.20478937 -0.21807481 0.09267768 0.3931724 0.109698355 0.32315427 0.08338523 -0.41033038 0.022109788 -0.40559384 -0.47375584 -0.5061224
http://www.semanticweb.org/ElementKG#Sn -0.0934356 0.048804846 0.19374077 0.034710955 -0.032796428 -0.0006276987 -0.29757947 -0.24426863 0.070061475 -0.10835267 -0.15744926 0.046470728 0.22420947 0.06875317 0.087744355 0.16720276 0.11475059 -0.0044670985 -0.10426709 0.27591679 -0.40811178 0.17064694 0.21327944 0.04596981 0.14453149 0.030413868 0.13799904 0.081491426 0.009092432 0.035789955 -0.06462751 -0.32765388 -0.2911417 0.070968434 0.4074021 -0.050803304 0.020975059 0.09882401 -0.1994498 0.18646263 -0.06831055 -0.23402949 0.37406877 0.07964823 -0.17982253 0.26605454 0.31882033 -0.15442109 -0.3984009 0.07056232 0.31387946 -0.05316417 -0.019214481 -0.076838225 0.001378471 -0.39028212 -0.19549684 0.14127752 0.063576974 0.12512346 -0.17893448 -0.019946717 0.07913315 0.07219559 -0.3441814 0.012605189 0.08605389 0.04032485 -0.12082103 0.19886617 0.046648644 0.045012664 -0.06498542 0.006192115 0.089540556 0.31356972 0.047673922 -0.22450258 -0.0135668125 0.15839316 -0.0007811061 -0.24929024 -0.1988171 0.15438183 -0.15891361 0.286403 0.07835451 0.011754371 -0.109648965 -0.21472172 0.09497716 0.05945001 0.27744296 0.2167413 -0.15752186 0.12174641 0.06310046 -0.3377459 -0.023464737 0.2389925 0.027010163 -0.40032133 0.12734213 0.24356274 0.1042744 0.3400791 0.03837437 -0.09408671 -0.310806 -0.43871894 -0.11536385 -0.070327915 0.09639337 -0.37701607 -0.27849007 0.38844138 -0.1819996 -0.22454976 -0.12916237 0.022644602 -0.25826347 -0.07058221 -0.09293439 -0.11318342 -0.017832793 0.09170253 0.22828622 -0.12588908 0.14676929 0.062572 -0.17485113 0.2114057 -0.11633076
http://www.semanticweb.org/ElementKG#Se -0.15349728 -0.044714767 0.0035448023 0.0032462012 0.031245347 0.42572242 0.016721718 -0.03304411 -0.04918107 0.061249398 -0.01604344 0.09758619 -0.012436231 0.0069802813 0.03853225 0.39451328 0.22670561 -0.08910795 -0.1568897 0.13362597 -0.11423856 0.10004368 -0.05109025 -0.1165523 0.2608399 -0.024203993 0.09221006 0.12017766 0.025217135 0.19390815 0.19146103 -0.3023483 -0.30079797 -0.1523321 0.18854943 -0.102553956 -0.3261875 0.10314281 0.15779276 -0.10623117 -0.26559436 0.25882322 0.13530959 -0.2741734 -0.081421725 0.12844086 0.14681554 0.00522204 -0.25757405 0.1715841 0.30087447 0.055201165 -0.04139776 -0.19503847 -0.086608015 -0.3191323 0.12910558 0.12115008 0.12851293 -0.01586847 -0.18227984 0.045538954 -0.17176038 -0.069677696 -0.08187072 0.04546381 0.18907976 0.043575794 0.2403495 0.25297156 -0.09623053 0.12990254 -0.122921206 -0.27076006 0.033084124 0.019965533 0.11803552 -0.22068961 0.13789807 -0.5641895 -0.23709945 -0.31097233 0.228978 -0.08669664 -0.2583454 0.027031604 -0.10348998 -0.28509387 -0.2724042 0.28945053 0.19398728 -0.09570974 -0.09604472 -0.031458795 -0.14654712 0.12100789 0.16267078 0.09224953 -0.06883081 -0.0010229909 0.20474753 -0.18142398 0.23353319 0.3594993 -0.18601851 -0.035938084 0.24359915 0.087724015 0.0440719 0.112979054 0.0047511472 -0.179991 0.050482564 0.08001615 -0.45180726 0.07728149 -0.2705606 0.047449097 -0.2031184 0.07855608 -0.26931515 -0.0097295465 -0.41784084 -0.10885911 0.17071128 0.1982958 -0.13694559 0.24059568 -0.26385418 0.18293788 0.23587437 -0.32610226 -0.015592716
http://www.semanticweb.org/ElementKG#As 0.05952571 -0.21231171 -0.08139539 0.17026086 0.00079388754 0.065752715 -0.20829377 0.09659551 -0.009692701 -0.3248129 -0.17242938 0.21067633 -0.02887644 0.38691244 0.10583817 0.09758048 0.2895669 -0.009616668 0.059731007 -0.047807705 -0.2549489 0.20359206 -0.040009316 -0.016721148 -0.06330612 -0.13236372 0.11768568 0.1255603 -0.04667495 -0.1732529 0.05250694 0.0112003945 -0.001867309 -0.037846472 -0.07322796 0.10625631 0.026016237 0.23687088 -0.2807713 -0.38894135 -0.3533774 0.08105007 -0.112302266 -0.06555503 -0.20802967 0.18949945 0.22161213 -0.05020017 -0.16264363 0.049480014 0.4988787 -0.3120405 -0.029708916 -0.12078444 -0.17692292 -0.3475383 0.20202118 -0.008876362 -0.23888776 -0.10864331 -0.0021825824 0.07048723 -0.20404294 -0.028333358 -0.13984954 0.16487199 0.023601474 0.03861528 0.13123785 0.2036721 0.15258513 0.08021675 0.31707984 -0.18866183 -0.010993475 -0.15677845 0.23124619 0.020833615 -0.087137714 -0.284117 -0.4444451 0.17479354 -0.23271675 -0.11931507 0.07109675 0.09129388 -0.2734517 -0.15740383 -0.2398512 0.38818508 -0.076991364 -0.027755614 0.29761317 0.011460935 -0.26102403 0.30105624 0.1283584 -0.2967449 0.07445297 -0.08364916 0.14136542 -0.21259332 0.21905676 0.26699224 -0.11447222 0.13385984 0.23188782 0.20826487 0.03368374 -0.11184368 -0.088483214 -0.08973048 -0.16834918 -0.17855336 -0.33765557 -0.06901425 -0.21576083 0.016767964 -0.19024977 -0.0015429944 -0.44893396 -0.06410767 -0.06944736 -0.12125729 0.09508329 0.13770677 -0.22722597 0.21798134 -0.020617452 0.1915764 0.13000949 -0.019117353 0.0417283
http://www.semanticweb.org/ElementKG#Pb -0.14233944 0.11906507 0.16879453 0.22080259 -0.30695158 0.5507427 -0.26831877 -0.16372421 -0.31992194 -0.2261279 -0.18470354 0.20640676 0.18772207 0.16892987 -0.103854224 0.3608585 0.00786288 -0.29241377 0.011998557 0.117612906 -0.15748091 -0.017234849 -0.0032005268 0.1327773 -0.10740247 0.035852972 0.13263752 0.051284086 -0.051299237 0.08741388 0.10746215 0.09835788 -0.24443375 0.05046327 0.30173478 0.09818138 -0.21401319 -0.10168021 -0.24486513 -0.017727157 -0.1862485 -0.05521674 0.20745021 -0.08173501 -0.34713644 0.50531924 0.0026480595 0.19456585 0.024867712 -0.0065360568 0.15366912 -0.16347401 -0.06251432 -0.09802789 -0.100824885 -0.30668646 -0.039309684 -0.00012542756 0.11501266 0.16306336 0.30192932 0.1693215 -0.03431379 0.33293948 -0.17002268 -0.22987065 0.012572768 0.06835645 0.14763111 0.23782744 0.010354419 -0.31651676 0.06274947 -0.052547373 0.3603461 -0.06318861 0.17594853 -0.095372364 0.32984224 -0.32929644 0.22598442 -0.14584614 -0.011589854 0.26994938 0.1405449 -0.070637345 -0.2813796 0.06799048 -0.12225018 0.099119544 -0.038478196 -0.42975852 0.097158596 -0.016223019 0.26017168 -0.071079016 0.31236196 0.040495355 0.081991315 0.37743995 0.04257644 -0.2537702 0.044244617 -0.056455012 -0.10126764 -0.053393535 -0.202589 -0.22727434 -0.28331092 -0.0988733 0.00042018582 0.01466854 0.29523277 -0.13705137 -0.017139744 0.13670859 -0.09129363 -0.06668702 -0.026628645 0.12609014 -0.00881862 0.0474137 -0.07895574 0.2578154 0.005890101 0.013955889 0.26421067 0.2284634 -0.20338556 0.31665367 0.10682259 -0.123400606 -0.43530077
http://www.semanticweb.org/ElementKG#Te 0.0032800038 -0.04682385 0.3192019 0.16879165 0.18221137 0.08407586 -0.32803765 0.3833874 0.15399621 -0.03839955 -0.09928913 0.08878829 0.22504339 -0.027312702 0.27840856 0.14322792 -0.14327939 -0.27350298 -0.12966792 0.3343516 0.018093143 0.08763402 0.03101239 -0.054189995 0.10238318 -0.20313124 -0.20883183 0.2194632 0.0068675955 -0.24148333 0.03191155 -0.17612077 -0.07627815 0.00414947 0.14253756 0.15931931 0.36083388 0.19696663 -0.0031806633 0.055750925 -0.095651634 -0.1582214 -0.028633907 -0.031277865 -0.12774839 0.14771573 0.17958045 -0.14750023 -0.3139519 -0.07866384 0.15982258 -0.004414912 -0.077217646 -0.0539522 0.07868049 -0.18504967 0.4776584 0.03168616 0.23958156 -0.24335364 -0.22437893 -0.14384519 0.012471097 0.21769406 -0.20486929 0.37969026 0.10964548 -0.014821344 -0.22100052 0.2127485 0.08399143 0.31130633 0.095060065 -0.13801518 0.16560893 -0.025432661 0.25238815 0.01328326 0.21749474 -0.36239985 0.019513138 -0.1716793 -0.13841587 0.18013114 -0.06496216 0.10613626 -0.41561928 -0.45417836 -0.20090574 0.22563562 -0.038992777 0.18924558 0.31129104 0.10230795 -0.2713102 0.09109217 -0.02226837 -0.00904837 -0.14698821 -0.034755263 0.0028931925 -0.121652156 0.0239238 0.11345588 -0.032661583 0.024085049 -0.007727331 -0.018874027 -0.18878114 -0.2488772 -0.21073613 0.18452093 0.14696549 -0.22152026 -0.2385541 -0.12104609 -0.14493269 -0.23651719 -0.031807683 0.14522082 -0.47791597 -0.23318371 -0.32641432 -0.140557 0.17332332 -0.032856952 0.14931661 0.027403954 0.22751524 0.23471771 0.12594168 -0.01802081 -0.0784433
http://www.semanticweb.org/ElementKG#Pm 0.12231192 0.24929315 0.22969101 -0.3289528 0.024960466 0.097240955 -0.14884603 0.077824384 0.18711685 -0.23452622 -0.29446226 0.0033614326 -0.028733999 7.840561e-06 0.19264589 0.2348405 0.1773734 -0.04273293 -0.08119405 -0.058285106 -0.09657938 0.2956833 0.5327594 0.023478014 -0.051214203 0.13277568 -0.009538554 0.06555301 0.12615156 -0.16761881 -0.06244221 0.025666373 -0.08726904 0.2550006 0.32011956 -0.11532481 -0.03416355 -0.089171864 -0.18111175 0.10933469 -0.17027028 -0.05514131 0.023397513 0.16278297 -0.23628022 0.066078685 -0.016460871 -0.035753157 -0.023189358 0.106895186 0.23203075 0.061180342 -0.16758908 0.018734816 0.2904364 -0.08142522 0.20407583 0.045696307 0.08134505 0.06384988 -0.18907954 -0.16618797 0.12978114 -0.082075104 0.04266248 0.17271796 0.050292954 0.23399584 0.27394786 0.2947559 -0.1518753 -0.18987945 0.11504981 -0.5150093 0.30814856 -0.18915462 0.26161012 0.07449719 0.3368917 -0.071725845 -0.0051362715 -0.050946802 -0.07251612 0.27940568 0.30369392 0.02012152 -0.010429632 -0.23114711 -0.07435706 -0.017689971 -0.10611889 0.20098379 0.0077302465 0.029358903 0.13869126 0.024712374 0.07589098 -0.1375628 0.20510523 0.07945152 0.21465515 0.13614716 0.15586254 0.28052717 0.038599953 0.04178838 0.06545039 0.108430095 -0.25635183 -0.056045204 0.0037320438 -0.14767969 -0.027418017 -0.32366234 0.09996493 0.40690053 -0.042526226 -0.22769861 -0.08043259 -0.45562667 0.31575027 0.17262219 -0.02536821 -0.14847527 0.18953441 0.2641408 0.04904754 0.17797424 -0.15729131 0.21420246 0.1500735 0.1111812 0.050503425
http://www.semanticweb.org/ElementKG#Eu 0.120733 -0.03672708 -0.025431221 -0.05139603 -0.060888376 0.20700286 -0.3629102 -0.1150413 0.31517184 -0.25819054 -0.32766685 -0.13021377 0.08907831 0.017645303 -0.005074771 0.25270617 0.025582043 -0.07649483 0.015354063 -0.06143173 0.09962508 0.38726076 0.18288659 0.030693796 0.03824709 0.07882555 -0.08790185 -0.025342489 0.0044094212 -0.2419486 0.07296506 -0.28817248 -0.106972545 -0.129491 0.42597374 -0.23977758 0.33683753 0.22361398 0.045435656 -0.14187579 -0.23720942 0.44193333 0.11832393 0.29531792 -0.37438598 -0.052586492 0.04488546 0.0069621503 -0.17201668 0.0970191 0.10017909 0.2873236 -0.2892564 0.10222655 0.098286115 -0.4701169 0.08208214 -0.17087127 0.105097316 0.110995844 -0.17286757 -0.2373945 0.2746066 -0.12439371 -0.26798493 0.10986474 -0.36391208 0.10756259 0.20278223 0.3257909 -0.21483289 -0.15729055 0.064859286 -0.16089672 -0.021761801 -0.27017516 0.312554 0.20175837 0.12112503 -0.41538844 0.2867251 0.15054685 -0.16127953 0.10360306 -0.12763263 -0.31152278 0.11832168 -0.054065853 0.0024398777 0.08030981 -0.22316805 0.1713566 -0.0017556554 0.1345825 0.26702857 0.17293786 -0.09406246 -0.23187555 0.20654121 0.044370703 0.18658656 0.027003093 0.28778666 0.14757599 -0.028604446 -0.0901503 -0.24695839 -0.111736044 -0.05412457 -0.11197218 0.067340985 -0.30555755 -0.18177114 -0.010525622 -0.10403697 0.11655938 -0.09672046 -0.15617777 0.09903238 -0.44364718 -0.15581246 0.017788326 -0.16984028 0.21447754 -0.008198108 -0.3227376 -0.09975342 0.30032653 -0.06232696 0.4469861 -0.12521479 -0.1325531 0.14003383
http://www.semanticweb.org/ElementKG#hasDensity3 -0.1584731 -0.26433545 0.39015228 -0.08736591 0.090932965 -0.38502538 -0.31569627 0.027457686 -0.20427287 0.12727875 -0.37998447 -0.036905143 0.40586355 0.47112772 0.1580162 -0.23484635 -0.33333343 -0.13093401 -0.19498812 -0.23736502 -0.028042568 0.1661432 0.114003465 0.33022308 -0.27414966 -0.31025878 -0.36352772 0.0496523 -0.43578553 0.0787738 0.14688556 -0.41216445 -0.010381475 0.14611956 0.082384065 0.03906091 0.04023419 -0.31265873 -0.35887098 -0.30986172 -0.6653827 -0.19642764 -0.0029883252 0.16235252 -0.15678316 0.48818743 -0.34840178 -0.103452034 -0.24342647 -0.030627938 0.11793995 -0.07247476 -0.022736471 -0.3739809 0.20821668 -0.22129379 -0.44189304 0.074186444 -0.057732668 0.38845977 0.31931248 -0.1663171 0.6929146 -0.16521254 -0.075269185 -0.11659042 -0.6908203 0.2470668 -0.3019828 0.1334044 0.15495631 0.08564885 0.23626465 -0.6247649 0.04191899 0.47928253 0.14366177 -0.12510526 0.26001912 0.011398871 0.3725902 -0.13359514 0.34433857 0.31076303 0.1148476 0.3308395 -0.19224107 0.08849691 -0.17028014 -0.08146629 -0.084414355 0.15686025 -0.2667434 0.16152644 -0.08340534 0.23472035 0.36831468 0.42847177 0.0874215 0.1527713 -0.15617152 0.05915976 0.13537002 0.27543825 -0.14436221 -0.44824743 0.20150766 -0.053791896 -0.3139913 0.23837835 -0.24358615 0.47910383 0.22593021 0.11088197 -0.31645918 0.45199978 -0.16091275 0.055148397 0.0053853 0.32571334 0.0018629694 0.1911708 -0.3221702 0.32628286 0.0134846335 -0.021495033 0.5821781 0.30275196 -0.06414163 0.084388815 -0.1857577 -0.25303933 0.4745988
http://www.semanticweb.org/ElementKG#Zr 0.26379248 -0.09056557 0.45468587 0.079928204 0.26627102 0.17535743 0.059983343 0.1275951 0.07984613 -0.13213499 -0.17336692 0.13668749 0.0068837716 0.17306449 -0.043245956 0.09750229 -0.0056855325 -0.06612135 0.072248966 -0.18424092 -0.08946434 0.008908386 -0.13667578 -0.29367355 0.31190568 -0.27630046 -0.07859675 0.3452171 0.09882039 0.052552015 0.16437125 -0.31596512 -0.11228906 -0.47651052 -0.084466286 0.072346 0.09044988 0.07527085 0.16092208 0.17440403 -0.12796701 -0.05623235 0.02670461 0.124574505 -0.24036898 0.18407722 0.38611564 -0.025774205 0.10547771 -0.3131974 0.23152874 0.07616157 -0.16638963 -0.012841682 0.13093793 -0.013361575 -0.04531883 0.110459834 0.21616895 0.3506346 -0.16868177 -0.06495876 0.046929594 -0.4153777 0.04738155 0.28611937 -0.25184494 -0.08675065 0.0053765397 0.009019166 -0.0571604 -0.14823109 -0.10392206 -0.20518687 -0.12221934 -0.07684781 0.27299657 -0.17075175 0.37467822 0.15083909 0.040797405 -0.08483775 0.09400136 -0.10169963 0.16806328 -0.05633096 -0.1738599 -0.11979003 -0.21735741 0.14269654 -0.12562273 0.27158403 0.1475283 -0.07179307 0.060972825 0.27073368 0.1485412 -0.1141869 0.016086932 -0.3820159 -0.1230687 0.0014514114 0.078810506 0.531244 0.15792769 0.42615333 -0.036143333 -0.29613093 0.29471442 0.067733616 0.034995064 0.11237447 0.3879841 -0.28243607 -0.16405572 -0.028079811 -0.31444618 -0.29945818 -0.22994956 0.11545759 -0.4481086 0.1182193 0.034652926 0.032296415 0.06261285 -0.007009303 0.21983193 -0.122277774 -0.13998897 0.07822538 0.06895832 0.1329371 -0.005960441
http://www.semanticweb.org/ElementKG#Ti 0.086193085 -0.41921204 0.056978613 0.14808431 0.0026160567 0.22172594 0.1087395 0.15910782 0.2646498 -0.4417064 -0.013820422 0.1551597 0.3026213 0.2976109 0.26722646 0.14996558 0.1068077 -0.21729621 -0.25601855 0.0029844735 -0.2293066 -0.015978312 -0.09882638 0.20492801 0.40745756 -0.38438773 0.0051820707 0.23407419 -0.18948433 0.002386556 -0.32856652 -0.0040767044 -0.08070452 -0.41949913 0.0040063164 -0.03161851 -0.3901786 -0.10592016 0.001610816 0.0565546 -0.23553684 -0.0755486 -0.06843899 0.40945545 0.065044 -0.14122333 0.10976526 -0.20355944 -0.0048921844 -0.05183536 0.2058918 0.046061426 0.02038694 0.27585006 0.08362583 -0.36227888 -0.112854205 0.03130103 -0.021794394 -0.047306996 -0.23777354 0.4334409 -0.10185576 0.037039563 0.024288878 0.1533275 0.03593571 0.15024833 0.057983667 0.2883056 -0.25665936 -0.2563987 -0.12765296 -0.07665866 -0.353002 0.03883569 0.080334276 0.17618555 0.027105669 -0.2160038 -0.09343351 -0.12400408 -0.16158232 -0.07956163 -0.062194392 0.20614052 -0.3210129 -0.07578809 -0.11449597 0.081751436 -0.26966822 -0.3140374 -0.16169417 0.1870301 -0.01757564 0.1134358 0.2496445 -0.16739525 -0.111515306 -0.26526386 -0.1011441 -0.44547766 0.0034469857 0.2560039 0.024666192 0.15915787 0.073353775 0.13901666 -0.009927725 0.3710462 0.07050152 0.011413233 0.22031045 -0.16843826 -0.26095253 0.25556877 -0.24822848 0.012884445 -0.010450613 -0.07702458 0.021038292 -0.1500753 0.10792182 -0.040418547 0.02330585 0.20774063 0.19567072 -0.009645657 -0.0013262171 0.054698724 0.36702943 -0.06362706 -0.15786192
http://www.semanticweb.org/ElementKG#Nb 0.0039567365 -0.009554231 0.1087082 0.023435084 -0.14675169 0.34547243 -0.4441714 -0.088120796 0.4312368 -0.04020714 -0.30350947 0.028756356 -0.095252834 0.094692595 0.042979486 0.14604102 0.08151924 -0.36215028 0.005419097 -0.12516455 -0.0101550715 0.23870423 -0.1269402 -0.25139904 -0.062078312 -0.42717406 -0.04194248 0.09442128 0.013953812 0.075392425 0.11518071 -0.000990017 -0.15463106 -0.24937606 0.22795875 0.3586697 -0.0844294 0.21677855 -0.05123808 -0.13747689 -0.112259366 -0.199452 0.07630367 0.04307243 -0.18737753 -0.16084939 0.38485804 -0.12093303 0.061349157 0.046426807 0.2729819 0.10100421 0.17606904 -0.31055996 0.2410441 -0.114576764 0.1761012 0.18763597 0.53902674 0.11971714 -0.23010345 -0.16163443 0.20359059 -0.09725165 -0.04094494 0.13325325 0.1188977 0.12151896 -0.12521876 -0.067011066 0.14487012 0.01945542 0.16771103 -0.30088532 -0.15348636 0.3066068 0.20303616 -0.13488683 0.14180775 0.35372347 -0.17310718 0.09552659 0.010438031 0.07917607 0.20400682 -0.10212012 -0.1283004 -0.4860855 -0.1371895 0.03890386 -0.28825164 0.28379527 0.1836994 0.04933974 -0.42017508 0.34066483 0.018050745 -0.120750256 0.03773186 0.08916803 0.037208915 0.022981817 0.17286995 -0.00519501 0.2104451 0.101516254 0.07782236 -0.11272409 -0.02155484 0.0013451532 0.14510228 0.0010354454 0.18503499 -0.117242716 -0.2815814 -0.07624805 -0.34794188 -0.2478359 -0.49582976 -0.12196584 -0.14158715 -0.1224895 0.09870055 0.008187996 -0.058778353 -0.2378214 0.34369883 -0.056880657 -0.0012575452 0.32875007 0.09074743 -0.22616954 0.16836137
http://www.semanticweb.org/ElementKG#Co -0.16116202 -0.38607046 -0.058701113 0.22190872 -0.11667987 -0.039570104 -0.39449775 0.059868764 -0.13106298 -0.30308482 -0.085492946 0.23389198 0.502465 0.43430525 0.09937558 0.15847374 -0.00883482 0.008377973 -0.053451374 0.07070574 -0.020024799 0.00049120095 -0.15856133 0.16182317 0.17141849 -0.12493097 0.3910684 0.10972015 0.1238492 -0.029526168 -0.25042924 -0.29030374 -0.20972241 -0.1857946 0.1084291 0.031445134 -0.09355728 0.10925427 0.25939247 -0.047549885 -0.22899169 0.00028719637 -0.19377379 -0.21177876 -0.16667818 0.08838299 0.41790748 -0.17630643 -0.092917785 0.1814285 0.11074976 0.32871145 0.14213805 0.1932999 0.013328617 -0.09831247 -0.0006980998 0.16853888 -0.023503587 0.19692913 -0.21943259 0.16742246 0.093024455 -0.044560436 0.09911656 0.17301963 0.023874026 0.09043987 0.122687295 0.36587337 -0.0010681428 -0.15511574 -0.06934069 -0.43695092 0.010269313 -0.040873 0.38222116 -0.24525452 0.047556277 -0.0028639177 -0.1189143 0.14809461 0.015295232 -0.22001225 0.21043679 0.18971606 -0.42853045 -0.2153703 0.13164677 0.047784243 -0.07367833 -0.022046635 0.036084358 0.1669581 -0.43314296 -0.12527652 0.08000054 -0.0027716255 0.16715062 0.026886517 0.021977644 0.034279972 0.005133062 0.31039894 0.5222492 0.18607989 -0.0029610652 0.27270448 -0.5460427 -0.083566725 -0.13645741 -0.27978474 0.15132539 0.078282796 -0.016696796 -0.101824485 -0.115572 0.13087854 -0.09924444 -0.03519386 -0.15657987 0.13665505 -0.15486339 -0.26829946 0.16148521 0.1316839 -0.058030862 -0.029944343 -0.24381714 0.35905296 -0.10703558 -0.0025975408 -0.22006194
http://www.semanticweb.org/ElementKG#Cr -0.0014167364 -0.3810346 -0.04338399 0.11037791 0.06706579 0.085860275 -0.09518843 -0.1760369 -0.048233606 -0.31247863 0.18953837 0.0036755262 0.27826518 0.4270483 0.058942012 0.19681455 0.15359065 -0.041352574 -0.0035136654 -0.025487145 0.021771746 -0.07075559 0.05553578 -0.00234476 0.30113757 0.046414524 0.429137 0.39123198 0.04249517 -0.17525871 0.12600905 -0.4078488 -0.24692278 -0.031322118 -0.078930855 0.20294029 -0.094762556 -0.15389737 0.29649737 -0.013488478 -0.16747163 -0.07549169 -0.0575942 0.18518603 0.07172138 0.2114334 0.26164982 -0.0842418 -0.16279729 0.22570126 0.12787084 0.06853769 0.12148748 0.0048760436 0.3517782 0.051418535 -0.025682306 -0.031765383 0.1318208 -0.0970759 -0.046531294 0.20537709 -0.046904434 0.40779722 0.04674667 0.2241627 0.006349616 0.43564108 -0.119254164 0.33528838 -0.22241734 -0.13902254 -0.10041596 -0.37898397 0.07003041 0.22899763 0.35922018 -0.015910428 0.10084847 0.037463702 -0.15495037 -0.15568368 -0.06914185 -0.1890452 0.27115107 0.113905996 -0.27036807 -0.25941533 -0.058271825 0.20374066 -0.24658668 0.007903021 0.11480488 0.054083675 -0.32343745 0.2521173 0.15079416 -0.12755837 0.1757459 0.16051766 -0.026682366 -0.16676499 0.31401715 0.13982306 -0.030778661 0.13568929 -0.010322321 0.090653114 -0.30947343 0.15891857 -0.062365264 -0.19234248 0.11187703 -0.0029082834 -0.05449404 0.03786242 -0.23390794 0.18575585 -0.13464521 0.064031765 -0.1443954 -0.053555414 0.07241498 -0.31988403 0.13528694 -0.16704546 -0.15828198 0.12736817 -0.07367062 0.42434272 -0.34120733 0.011351971 -0.0576399
http://www.semanticweb.org/ElementKG#Cd 0.023557618 0.2465553 0.12118964 0.297548 0.0829116 -0.06293955 -0.15891886 -0.15698205 0.1299664 -0.30219626 -0.33192936 -0.117643476 0.024402322 -0.038475893 0.013379037 0.18243043 -0.0088940505 -0.48252252 -0.1299726 0.08489276 -0.20178558 -0.009010381 -0.01554658 0.21642722 0.071377866 -0.09328677 -0.26622257 0.14578536 0.19635496 -0.11793178 -0.21173438 -0.21248943 -0.124246694 -0.06663494 0.23006827 0.048679028 0.034177028 0.3238223 -0.23103747 0.08647465 -0.1625512 -0.07865342 0.072490245 -0.0760928 -0.0035659645 0.07917514 0.32394582 -0.23341955 -0.18066514 -0.07676608 0.10618757 -0.10749499 0.24269493 -0.30959386 -0.09194139 -0.27342984 -0.06991743 -0.0009570872 0.13953586 -0.15411983 0.07868599 -0.12678286 -0.08962308 0.14059225 -0.35589045 0.15362833 -0.054548968 0.14017592 0.14775105 0.054502834 -0.076577544 -0.1199047 0.027598571 -0.005466677 -0.022666698 0.14416058 0.04592979 -0.26874557 -0.0048899176 -0.10681348 -0.060544882 -0.10723853 -0.059322767 -0.09015962 -0.21671513 0.23928666 -0.48955056 -0.3994073 0.11928448 -0.24998002 0.0036062386 0.09143139 -0.038098212 0.1069996 -0.20247671 0.11075453 -0.23023862 0.08817408 -0.2069371 -0.3643154 -0.13567987 -0.30550694 0.3949815 0.39740774 -0.20797788 -0.044568848 -0.03889292 0.0029569431 0.004694225 -0.18393366 0.16384327 0.08068102 0.0965747 -0.14282311 -0.15523499 0.11765044 -0.21365087 -0.28508902 -0.3399747 0.27103552 -0.2847801 -0.106377006 0.05203112 -0.29619694 0.29801923 0.02153909 0.07181574 0.056057397 -0.24749494 0.5430713 0.19950789 0.17616296 0.13670863
http://www.semanticweb.org/ElementKG#Pd -0.08272754 -0.2399558 0.07422046 -0.08530796 0.09979241 0.31629372 0.032136254 0.21344584 -0.24740796 -0.22422597 -0.054221444 -0.24168375 0.3210929 -0.046500076 0.29873765 0.43241546 -0.021572137 -0.25367883 -0.11470457 0.14112273 -0.21801338 -0.09510837 -0.053372517 0.30492654 0.062223382 0.09770671 0.08528751 0.046439763 -0.19885458 0.010189089 0.08548841 -0.04053624 -0.32844782 0.15499727 0.45449373 0.31731832 -0.028084535 0.19371942 -0.050359786 0.057324026 -0.35332975 -0.03639255 0.12557656 -0.1331703 -0.17559667 0.63904923 0.28279346 0.0825159 0.055333223 0.05842003 -0.12532811 0.002815954 0.15967341 -0.1787846 0.06159737 0.12259973 -0.06329518 -0.09739438 0.22073153 0.06698717 -0.09621326 0.084479995 0.2774916 -0.20365766 0.049734067 -0.017718052 0.115787074 -0.13700202 -0.16067982 0.26454437 0.22151022 -0.07967787 -0.15875179 0.069926366 -0.3501025 0.20522204 0.1312142 0.022009045 0.27614254 -0.064132184 0.13037641 -0.2090075 -0.18171857 0.21043627 0.26540214 0.037600435 -0.18886523 -0.017702632 -0.26660573 0.19196253 -0.22804533 0.19310668 0.07373242 0.4082365 -0.03283524 0.18792932 0.15383682 -0.12112298 0.21541774 0.16395701 0.19348928 -0.078718334 0.20421804 0.37476265 0.082309194 0.08711001 -0.1971263 0.15453702 -0.25788844 0.12533116 0.17158175 0.052982014 0.19766977 -0.22943117 -0.3877322 0.047161624 0.12587388 -0.40310606 -0.16508926 0.25771397 -0.2047731 0.17417578 0.28575724 0.013085645 -0.18582082 0.13672425 0.092846826 0.07411399 -0.240918 -0.08660981 -0.06907652 -0.012005689 -0.16131799
http://www.semanticweb.org/ElementKG#Ge 0.17465933 -0.2525907 -0.0087950025 -0.047997177 -0.03784913 0.11764796 -0.058626167 -0.033729263 -0.056937806 -0.24788551 -0.060933404 -0.010715003 0.0834065 0.22898878 0.4572095 0.3341269 0.36011565 0.006108887 -0.023683932 0.2439801 -0.23190357 0.17960152 0.284933 -0.06461833 0.17106393 0.07176049 0.18295074 0.22653411 -0.06496403 0.14158136 -0.23379743 -0.16585138 -0.15137471 -0.25556713 0.07217084 0.009301235 -0.13295077 -0.20636852 -0.13054258 -0.103797466 -0.42415896 0.1173727 0.1520934 -0.18081498 -0.34623042 0.06650714 -0.03955984 -0.029556146 -0.3664248 0.18112801 0.115465395 -0.20034826 -0.08266297 0.10611693 -0.07955859 -0.37962696 -0.08121819 -0.034732047 0.17617504 -0.21845764 -0.24827917 0.16230647 0.03049487 0.022127943 -0.04243615 0.03675614 0.039862644 0.1893597 0.0022737077 0.055232693 -0.032359507 -0.0853238 0.038578693 -0.10045194 0.0022868565 0.09918331 0.34408498 -0.25130287 0.3074867 0.018211529 0.035271235 -0.0260785 -0.15437907 -0.05897851 0.14832342 0.10701219 -0.40387654 -0.10009335 -0.04160366 0.35108355 -0.20720975 -0.1675134 -0.19127792 0.03717753 -0.24313468 0.13024631 -0.14639378 -0.11485598 0.19840842 0.21245484 0.06365427 -0.3548409 -0.09275072 0.13961066 0.20530795 0.18838722 0.024906484 0.41157275 -0.2777769 -0.14512204 -0.17346513 0.08545167 -0.16978735 0.026672337 -0.102646664 -0.006131217 -0.3321931 -0.27383155 -0.12346084 -0.22640626 -0.15244213 0.3214867 0.20746768 -0.19540207 0.25296587 -0.3897703 -0.1290337 0.025547063 0.17498298 0.06791594 0.2635121 0.030361861 0.01200223
